
\data\
ngram 1=503
ngram 2=1609
ngram 3=2162

\1-grams:
-3.098817	'	-0.1376211
-1.354524	</s>
-99	<s>	-0.4695719
-0.9198398	<unk>	-0.4549332
-2.445604	a	-0.2690699
-3.399847	abel	-0.09553926
-3.399847	abstrait	-0.09553926
-2.700877	abstraite	-0.09553926
-3.399847	académie	-0.09553926
-3.399847	accusatif	-0.09553926
-3.399847	actuelles	-0.09553927
-3.399847	ad	-0.09553926
-3.399847	additionnés	-0.09553927
-3.399847	aide	-0.09553928
-3.399847	ailleurs	-0.09553928
-2.554749	ainsi	-0.2385963
-3.399847	al	-0.09553926
-3.399847	albert	-0.09553926
-3.399847	alembert	-0.09553926
-1.937449	algèbre	-0.2577444
-3.399847	algèbres	-0.09553926
-2.922725	algébrique	-0.09553927
-2.399847	algébriques	-0.1036357
-3.399847	allier	-0.09553926
-2.922725	alors	-0.09553926
-3.399847	an	-0.09553926
-2.922725	analyse	-0.09553928
-3.399847	andrew	-0.09553926
-3.399847	andré	-0.09553926
-3.399847	angle	-0.09553926
-2.797787	anneau	-0.09553927
-2.700877	anneaux	-0.09553926
-3.399847	antiques	-0.09553926
-2.922725	antoine	-0.1376211
-3.399847	apparues	-0.09553926
-3.399847	appellation	-0.09553926
-3.399847	appelé	-0.09553927
-3.399847	application	-0.09553926
-3.098817	applications	-0.09553926
-3.098817	après	-0.09553926
-3.399847	arbitraire	-0.09553926
-3.399847	arithmétiques	-0.09553926
-3.399847	arménien	-0.09553926
-3.399847	article	-0.09553927
-2.922725	artin	-0.123136
-3.399847	artiniens	-0.09553926
-3.399847	aspects	-0.09553926
-3.399847	assiste	-0.09553927
-3.399847	associé	-0.09553926
-3.399847	assure	-0.09553926
-2.445604	au	-0.1137409
-3.399847	aucun	-0.09553926
-3.399847	auguste	-0.09553926
-3.399847	auquel	-0.09553926
-3.399847	aurélien	-0.09553926
-3.399847	ausdehnungslehre	-0.09553926
-2.399847	aussi	-0.1905274
-3.399847	automorphismes	-0.09553926
-3.399847	autour	-0.09553926
-2.922725	autres	-0.09553926
-2.700877	aux	-0.111886
-3.399847	avait	-0.09553926
-3.399847	avant	-0.09553926
-2.554749	avec	-0.1071524
-3.399847	avère	-0.09553926
-3.399847	avèrent	-0.09553927
-3.399847	axiomatise	-0.09553926
-3.399847	balkans	-0.09553926
-3.399847	banville	-0.09553927
-2.922725	base	-0.09553926
-3.399847	bases	-0.09553927
-2.797787	beaucoup	-0.09553926
-3.399847	belles	-0.09553927
-3.399847	benveniste	-0.09553926
-3.399847	bien	-0.09553926
-3.098817	bipoints	-0.09553926
-3.399847	bloc	-0.09553926
-3.098817	blocs	-0.09553926
-3.399847	bonnes	-0.09553926
-3.399847	bosnie	-0.09553926
-3.399847	bourbonnaise	-0.09553926
-2.922725	branche	-0.1376211
-2.922725	branches	-0.09553927
-3.399847	brauer	-0.09553927
-3.399847	brut	-0.09553927
-3.399847	bréal	-0.09553926
-3.098817	burnside	-0.09553927
-2.797787	c'	-0.6824569
-3.098817	cadre	-0.09553927
-3.399847	calcul	-0.09553927
-3.399847	camille	-0.09553926
-3.399847	canonique	-0.09553927
-3.399847	caractéristique	-0.09553926
-3.399847	caractérisés	-0.09553926
-3.399847	carl	-0.09553926
-3.399847	carrière	-0.09553926
-3.399847	cartésiens	-0.09553927
-2.621696	cas	-0.09553927
-3.399847	ce	-0.09553927
-2.922725	celle	-0.09553926
-3.399847	celles	-0.09553926
-2.621696	celui	-0.3122816
-3.399847	censé	-0.09553926
-3.098817	cependant	-0.09553926
-3.399847	certain	-0.09553926
-3.098817	certaines	-0.09553927
-3.399847	certains	-0.09553927
-2.797787	ces	-0.09553927
-3.098817	cet	-0.09553927
-2.320666	cette	-0.1036357
-2.922725	ceux	-0.123136
-3.399847	cf	-0.09553926
-3.098817	chaire	-0.09553927
-3.399847	changement	-0.09553926
-3.098817	chaque	-0.09553927
-3.399847	charles	-0.09553926
-3.098817	cher	-0.09553926
-3.399847	choisies	-0.09553926
-3.399847	choisis	-0.09553926
-3.098817	châteaumeillant	-0.1376211
-3.399847	ci	-0.09553927
-3.399847	citer	-0.09553926
-3.399847	cité	-0.09553926
-3.399847	classe	-0.09553928
-3.399847	classification	-0.09553926
-3.399847	classique	-0.09553926
-3.399847	classiques	-0.09553926
-2.922725	coefficients	-0.09553927
-3.399847	cohen	-0.09553926
-3.098817	collège	-0.09553927
-3.399847	combinant	-0.09553926
-3.399847	combiner	-0.09553926
-2.223755	comme	-0.2466352
-2.922725	commence	-0.09553926
-3.399847	commutative	-0.09553926
-3.098817	comparée	-0.09553926
-3.399847	compas	-0.09553926
-2.922725	complexes	-0.09553926
-3.399847	complète	-0.09553926
-3.399847	composantes	-0.09553926
-3.399847	composé	-0.09553926
-3.399847	concernent	-0.09553926
-3.399847	concret	-0.09553928
-3.399847	concrets	-0.09553927
-3.399847	condition	-0.09553927
-3.399847	conditions	-0.09553928
-3.399847	conférence	-0.09553926
-3.399847	conjectures	-0.09553926
-3.399847	connexions	-0.09553926
-3.399847	connu	-0.09553926
-3.399847	consacre	-0.09553926
-3.399847	conscient	-0.09553927
-3.399847	considérer	-0.09553926
-3.399847	considéré	-0.09553926
-3.399847	consiste	-0.09553926
-3.399847	constructible	-0.09553926
-3.098817	construction	-0.09553926
-3.098817	construit	-0.09553927
-3.399847	construite	-0.09553926
-3.098817	conséquence	-0.09553928
-2.922725	contenant	-0.123136
-3.399847	contenir	-0.09553926
-2.922725	contient	-0.09553926
-3.399847	copies	-0.09553927
-2.019635	corps	-0.1524794
-3.399847	correspond	-0.09553926
-2.922725	cours	-0.123136
-3.399847	crible	-0.09553927
-3.399847	créer	-0.09553926
-3.399847	cube	-0.09553926
-3.399847	célèbre	-0.09553928
-3.399847	côté	-0.09553926
-3.399847	d	-0.09553927
-1.675571	d'	-0.3640801
-2.001907	dans	-0.4287902
-1.285903	de	-0.2819427
-3.399847	dedekind	-0.09553926
-3.098817	degré	-0.09553926
-3.399847	demeurera	-0.09553927
-3.399847	dernier	-0.09553926
-3.399847	dernière	-0.09553926
-1.530615	des	-0.1949173
-3.399847	descartes	-0.09553926
-2.797787	deux	-0.09553926
-3.399847	devait	-0.09553926
-3.399847	deviennent	-0.09553927
-3.399847	devient	-0.09553927
-3.399847	die	-0.09553926
-3.399847	différentielle	-0.09553926
-3.399847	différents	-0.09553926
-2.399847	dimension	-0.1056837
-2.922725	dimensions	-0.09553926
-3.399847	dire	-0.09553926
-3.399847	directe	-0.09553927
-3.399847	direction	-0.09553926
-3.399847	dirige	-0.09553926
-3.399847	diriger	-0.09553926
-3.098817	disposant	-0.09553926
-3.399847	disposer	-0.09553927
-3.399847	distincts	-0.09553926
-3.399847	dites	-0.09553926
-2.922725	divers	-0.09553926
-3.399847	diversité	-0.09553926
-3.399847	doctorat	-0.09553926
-2.621696	domaines	-0.1091185
-3.399847	donne	-0.09553927
-3.399847	donné	-0.09553926
-3.399847	données	-0.09553926
-3.399847	dont	-0.09553926
-3.098817	droite	-0.09553927
-3.399847	droites	-0.09553926
-2.077627	du	-0.1077413
-3.399847	dumézil	-0.09553926
-3.399847	duplication	-0.09553926
-3.399847	dès	-0.09553926
-2.922725	début	-0.5575181
-3.399847	décennies	-0.09553926
-3.399847	décomposition	-0.09553926
-3.399847	découverte	-0.09553926
-3.399847	découvre	-0.09553926
-3.399847	découvrit	-0.09553926
-3.399847	définissant	-0.09553927
-3.399847	définit	-0.09553926
-3.399847	définition	-0.09553926
-3.399847	définitions	-0.09553926
-3.399847	définitivement	-0.09553926
-3.399847	déjà	-0.09553926
-3.098817	démonstration	-0.09553927
-3.098817	déplacements	-0.09553927
-3.399847	détail	-0.09553927
-3.399847	déterminants	-0.09553926
-3.399847	détermination	-0.09553927
-3.399847	déterminer	-0.09553926
-3.399847	développe	-0.09553927
-2.922725	développement	-0.09553927
-3.399847	développée	-0.09553926
-3.399847	efficacement	-0.09553926
-2.797787	elle	-0.09553926
-3.399847	elles	-0.09553926
-3.399847	emil	-0.09553927
-3.399847	emmy	-0.09553926
-3.399847	emploi	-0.09553926
-1.908485	en	-0.2454677
-2.922725	encore	-0.09553926
-3.399847	endomorphisme	-0.09553926
-3.399847	endomorphismes	-0.09553928
-3.399847	enfin	-0.09553926
-3.399847	enseigne	-0.09553926
-2.922725	ensemble	-0.09553926
-3.399847	ensembles	-0.09553927
-3.399847	ensuite	-0.09553926
-3.098817	entiers	-0.09553927
-3.399847	entités	-0.09553926
-3.399847	entière	-0.09553926
-3.399847	entièrement	-0.09553926
-3.399847	entraînement	-0.09553926
-2.922725	entre	-0.09553927
-3.399847	environnement	-0.09553926
-2.077627	espace	-0.334742
-2.223755	espaces	-0.3639701
-3.399847	essentiel	-0.09553926
-3.399847	essentiellement	-0.09553926
-3.399847	essentielles	-0.09553926
-1.776597	est	-0.2991585
-1.868368	et	-0.1905311
-3.399847	euclide	-0.09553926
-3.399847	européennes	-0.09553926
-3.399847	eux	-0.09553926
-2.445604	exemple	-0.1045447
-2.922725	exemples	-0.09553926
-3.399847	exposant	-0.09553926
-3.399847	expressions	-0.09553926
-3.098817	extension	-0.09553926
-3.098817	extensions	-0.09553925
-3.399847	externe	-0.09553926
-3.399847	facteurs	-0.09553926
-3.399847	faculté	-0.09553926
-3.399847	faisait	-0.09553927
-3.399847	fait	-0.09553926
-3.399847	faite	-0.09553927
-3.399847	ferdinand	-0.09553927
-3.399847	fermat	-0.09553926
-3.399847	figures	-0.09553926
-3.399847	fils	-0.09553928
-2.922725	fin	-0.09553927
-2.621696	fini	-0.1091185
-3.098817	finie	-0.09553927
-3.098817	finies	-0.09553927
-3.098817	finis	-0.09553927
-3.399847	fois	-0.09553926
-3.399847	fonctionnelle	-0.09553926
-3.399847	fonctions	-0.09553926
-3.399847	fondamental	-0.09553926
-3.399847	fondamentale	-0.09553926
-3.399847	fonde	-0.09553926
-3.399847	fondement	-0.09553927
-3.399847	fondée	-0.09553926
-3.098817	formalisation	-0.1376211
-3.399847	formant	-0.09553926
-3.399847	forme	-0.09553926
-2.922725	forment	-0.09553926
-3.399847	formulaïque	-0.09553927
-3.399847	formules	-0.09553926
-3.098817	formé	-0.09553926
-3.098817	france	-0.09553926
-3.098817	français	-0.09553927
-3.399847	friedrich	-0.09553926
-3.399847	frobenius	-0.09553926
-2.922725	galois	-0.09553927
-3.399847	gauss	-0.09553927
-3.399847	georg	-0.09553926
-3.399847	georges	-0.09553926
-3.399847	gigaoctets	-0.09553926
-3.399847	giuseppe	-0.09553926
-3.399847	gl	-0.09553927
-3.399847	gnfs	-0.09553926
-3.098817	grammaire	-0.09553927
-3.399847	grammaticalisation	-0.09553926
-3.399847	grande	-0.09553926
-3.399847	grandement	-0.09553926
-3.399847	grassman	-0.09553926
-3.399847	grassmann	-0.09553926
-3.399847	grecque	-0.09553926
-2.496757	groupe	-0.1056837
-2.797787	groupes	-0.09553926
-3.399847	guillaume	-0.09553926
-3.399847	gustave	-0.09553926
-3.399847	génitif	-0.09553926
-2.922725	général	-0.09553926
-2.554749	générale	-0.09553926
-3.399847	généralisation	-0.09553928
-3.399847	généralisent	-0.09553926
-2.922725	géométrie	-0.09553927
-2.700877	géométriques	-0.111886
-3.098817	hamilton	-0.09553927
-3.098817	histoire	-0.09553927
-3.098817	huit	-0.09553926
-3.098817	ici	-0.09553926
-3.098817	idées	-0.09553926
-2.038119	il	-0.1596742
-3.098817	iliade	-0.09553927
-3.098817	important	-0.09553926
-2.797787	infinie	-0.1160707
-3.098817	intéresse	-0.09553926
-3.098817	jean	-0.09553926
-3.098817	jusqu'	-0.09553926
-3.098817	k	-0.09553926
-2.700877	l	-0.09553926
-1.651659	l'	-0.273605
-1.580303	la	-0.3167767
-3.098817	langues	-0.09553926
-1.766378	le	-0.281975
-1.636419	les	-0.1840739
-2.922725	lettres	-0.09553926
-2.797787	leur	-0.1160707
-2.922725	leurs	-0.123136
-3.098817	linguiste	-0.09553926
-3.098817	linguistes	-0.09553925
-2.195727	linéaire	-0.1017539
-2.554749	linéaires	-0.09553926
-2.922725	lui	-0.09553926
-3.098817	maintenant	-0.09553926
-2.922725	mais	-0.09553926
-3.098817	manière	-0.09553927
-2.253719	mathématiques	-0.1028934
-3.098817	matrice	-0.09553926
-3.098817	matrices	-0.09553927
-2.554749	meillet	-0.334742
-3.098817	milman	-0.09553927
-2.922725	moderne	-0.09553926
-3.098817	moulins	-0.09553927
-3.098817	mémoires	-0.09553927
-2.797787	méthode	-0.1160707
-2.797787	même	-0.09553926
-3.098817	n	-0.09553927
-2.700877	n'	-0.1160707
-2.797787	ne	-0.09553926
-2.922725	nom	-0.09553927
-2.797787	nombre	-0.09553926
-2.320666	nombres	-0.1036357
-2.700877	nombreux	-0.09553926
-3.098817	non	-0.09553927
-3.098817	notamment	-0.09553926
-2.922725	notion	-0.09553927
-3.098817	nouvelle	-0.09553926
-3.098817	nécessaire	-0.09553927
-3.098817	objet	-0.1376211
-2.621696	on	-0.2677951
-2.700877	ont	-0.111886
-3.098817	orale	-0.09553926
-3.098817	origine	-0.09553927
-2.169398	ou	-0.1108461
-3.098817	outil	-0.09553926
-2.922725	où	-0.123136
-2.001907	par	-0.1097186
-3.098817	parfois	-0.09553927
-3.098817	paris	-0.09553926
-2.700877	parry	-0.111886
-3.098817	particulier	-0.09553926
-3.098817	partie	-0.09553927
-3.098817	partir	-0.09553927
-2.621696	pas	-0.09553928
-2.621696	permet	-0.3914629
-2.922725	petit	-0.09553926
-2.554749	peut	-0.2385963
-2.797787	peuvent	-0.09553926
-2.554749	plus	-0.131354
-3.098817	points	-0.09553926
-3.098817	polynôme	-0.09553927
-3.098817	polynômes	-0.09553926
-3.098817	possible	-0.09553927
-3.098817	possède	-0.09553926
-2.195727	pour	-0.1640153
-3.098817	pratique	-0.09553926
-2.922725	premier	-0.09553926
-3.098817	première	-0.09553927
-3.098817	premières	-0.09553927
-2.922725	problèmes	-0.09553926
-3.098817	produit	-0.09553927
-2.797787	propriétés	-0.09553926
-2.621696	qu'	-0.1091185
-3.098817	quaternions	-0.09553926
-2.445604	que	-0.1137409
-3.098817	question	-0.09553926
-2.144574	qui	-0.3542238
-2.797787	rationnels	-0.1160707
-3.098817	recherche	-0.09553926
-3.098817	recherches	-0.09553927
-2.922725	représentation	-0.09553926
-3.098817	représentent	-0.09553926
-2.922725	représenter	-0.09553927
-3.098817	reste	-0.09553926
-3.098817	richard	-0.09553928
-3.098817	règles	-0.09553926
-2.922725	réels	-0.09553926
-2.922725	résolution	-0.09553927
-3.098817	résoudre	-0.09553926
-3.098817	résultats	-0.09553927
-2.496757	s'	-0.1190846
-2.922725	sa	-0.09553925
-3.098817	saussure	-0.09553926
-3.098817	scalaires	-0.09553926
-2.922725	sciences	-0.09553927
-2.922725	se	-0.123136
-2.797787	ses	-0.09553926
-2.797787	si	-0.1160707
-3.098817	simple	-0.09553927
-2.399847	son	-0.2597992
-2.445604	sont	-0.1056837
-2.253719	sous	-0.216012
-2.253719	structure	-0.1103743
-2.700877	structures	-0.3889321
-3.098817	suffisante	-0.09553927
-3.098817	suite	-0.09553927
-2.098817	sur	-0.4461195
-2.922725	symétries	-0.09553926
-3.098817	systèmes	-0.09553928
-3.098817	séparément	-0.09553926
-2.922725	telle	-0.123136
-3.098817	thèse	-0.09553926
-2.285903	théorie	-0.123136
-2.922725	théories	-0.123136
-2.554749	théorème	-0.2548257
-2.922725	théorèmes	-0.09553926
-2.797787	tous	-0.5575181
-2.922725	tout	-0.09553926
-2.922725	tradition	-0.09553925
-3.098817	transformations	-0.09553926
-3.098817	travail	-0.09553927
-3.098817	travaux	-0.1376211
-3.098817	trouve	-0.09553926
-2.922725	très	-0.09553926
-1.718605	un	-0.3213646
-1.984873	une	-0.2092555
-2.922725	utilisation	-0.09553924
-2.922725	utilise	-0.09553928
-3.098817	utiliser	-0.1376211
-3.098817	utilisé	-0.1376211
-2.922725	utilisée	-0.09553927
-2.797787	utilisés	-0.09553926
-3.098817	vecteur	-0.09553926
-2.797787	vecteurs	-0.09553925
-2.144574	vectoriel	-0.09553927
-2.358454	vectoriels	-0.09553927
-3.098817	wedderburn	-0.09553926
-3.098817	y	-0.09553926
-1.766378	à	-0.3808524
-2.922725	école	-0.09553927
-3.098817	écrit	-0.09553927
-3.098817	également	-0.09553926
-3.098817	élucider	-0.09553926
-3.098817	élémentaire	-0.09553926
-2.922725	éléments	-0.09553927
-3.098817	émergé	-0.09553927
-3.098817	époque	-0.09553927
-3.098817	équation	-0.09553927
-2.700877	équations	-0.09553926
-2.621696	étude	-0.09553926
-2.797787	études	-0.3889321
-3.098817	étudiant	-0.09553927
-3.098817	étudie	-0.09553926
-2.922725	été	-0.123136
-2.554749	être	-0.2385963

\2-grams:
-0.5528457	' algèbre	-0.04711848
-1.158999	<s> <unk>	-0.04711848
-2.233664	<s> ainsi	-0.04711849
-2.054992	<s> algèbre	-0.04711847
-2.275834	<s> antoine	-0.1431866
-2.688421	<s> après	-0.04711848
-2.564704	<s> avec	-0.04711848
-2.634638	<s> c'	-0.04711848
-2.718036	<s> carl	-0.04711848
-2.718036	<s> ce	-0.04711848
-2.634638	<s> ces	-0.04711848
-2.688421	<s> cet	-0.04711847
-1.674455	<s> cette	-0.1087481
-2.419626	<s> comme	-0.04711848
-1.918923	<s> d'	-0.04711848
-1.697219	<s> elle	-0.04711848
-2.718036	<s> elles	-0.04711848
-1.162582	<s> en	-0.1882627
-2.718036	<s> enfin	-0.04711848
-2.718036	<s> georg	-0.04711848
-1.023561	<s> il	-0.1666027
-2.688421	<s> jusqu'	-0.04711848
-2.254238	<s> l	-0.04711849
-1.044948	<s> l'	-0.1911674
-1.255843	<s> la	-0.07684098
-1.463974	<s> le	-0.04711848
-0.9300913	<s> les	-0.2175555
-2.660698	<s> leurs	-0.04711848
-2.564704	<s> meillet	-0.04711848
-2.586787	<s> on	-0.04711848
-1.639834	<s> par	-0.1087481
-2.688421	<s> richard	-0.04711847
-2.223732	<s> s'	-0.1431866
-2.264902	<s> si	-0.04711848
-2.504485	<s> son	-0.04711847
-2.435323	<s> sous	-0.04711848
-2.660698	<s> tout	-0.04711848
-1.096485	<s> un	-0.170116
-2.07544	<s> une	-0.04711847
-2.119911	<s> à	-0.04711848
-2.688421	<s> étudiant	-0.04711848
-0.9109909	<unk> </s>
-0.9207504	<unk> <unk>	-0.1675388
-2.702597	<unk> a	-0.04711847
-2.768543	<unk> ainsi	-0.04711847
-3.062631	<unk> albert	-0.04711848
-2.941149	<unk> algébrique	-0.04711847
-2.673035	<unk> algébriques	-0.04711848
-2.941149	<unk> antoine	-0.04711847
-2.997656	<unk> après	-0.04711848
-2.48754	<unk> au	-0.04711848
-3.062631	<unk> auquel	-0.04711848
-3.062631	<unk> aurélien	-0.04711848
-3.062631	<unk> ausdehnungslehre	-0.04711848
-2.673035	<unk> aussi	-0.04711848
-2.941149	<unk> autres	-0.04711847
-2.846327	<unk> aux	-0.04711848
-2.768543	<unk> avec	-0.04711848
-3.062631	<unk> benveniste	-0.04711848
-3.062631	<unk> brut	-0.04711848
-3.062631	<unk> bréal	-0.04711848
-3.062631	<unk> canonique	-0.04711848
-2.941149	<unk> celle	-0.04711848
-2.891155	<unk> ces	-0.04711848
-3.062631	<unk> changement	-0.04711848
-3.062631	<unk> charles	-0.04711848
-3.062631	<unk> classique	-0.04711848
-3.062631	<unk> cohen	-0.04711848
-1.675732	<unk> comme	-0.07246834
-3.062631	<unk> considéré	-0.04711849
-1.578262	<unk> d'	-0.07684101
-1.647888	<unk> dans	-0.076841
-1.034739	<unk> de	-0.1345174
-3.062631	<unk> demeurera	-0.04711848
-1.435393	<unk> des	-0.1103681
-3.062631	<unk> descartes	-0.04711848
-2.891155	<unk> deux	-0.04711848
-3.062631	<unk> die	-0.04711848
-2.307082	<unk> du	-0.1087481
-3.062631	<unk> dès	-0.04711848
-3.062631	<unk> découvre	-0.04711848
-3.062631	<unk> définitivement	-0.04711848
-2.891155	<unk> elle	-0.04711848
-1.568458	<unk> en	-0.07246831
-3.062631	<unk> entière	-0.04711848
-2.941149	<unk> entre	-0.04711848
-2.436536	<unk> espace	-0.04711848
-1.858802	<unk> est	-0.04711848
-1.507147	<unk> et	-0.06921749
-3.062631	<unk> européennes	-0.04711848
-3.062631	<unk> externe	-0.04711849
-3.062631	<unk> fondamentale	-0.04711848
-3.062631	<unk> fondée	-0.04711848
-2.997656	<unk> formé	-0.04711848
-3.062631	<unk> gigaoctets	-0.04711848
-3.062631	<unk> grassmann	-0.04711848
-2.997656	<unk> hamilton	-0.04711846
-2.997656	<unk> ici	-0.04711848
-2.404584	<unk> il	-0.04711848
-2.997656	<unk> important	-0.04711848
-2.891155	<unk> infinie	-0.04711848
-1.710537	<unk> l'	-0.1471429
-1.680448	<unk> la	-0.04711848
-1.542306	<unk> le	-0.08721837
-1.566923	<unk> les	-0.07246833
-2.941149	<unk> lettres	-0.04711848
-2.891155	<unk> leur	-0.04711848
-2.997656	<unk> linguiste	-0.04711848
-2.642758	<unk> maintenant	-0.04711848
-2.941149	<unk> mais	-0.04711847
-2.768543	<unk> meillet	-0.04711848
-2.592477	<unk> même	-0.04711848
-2.997656	<unk> non	-0.04711846
-2.997656	<unk> notamment	-0.04711848
-2.997656	<unk> nouvelle	-0.04711848
-2.805696	<unk> on	-0.04711848
-2.846327	<unk> ont	-0.04711848
-2.997656	<unk> orale	-0.04711848
-1.853074	<unk> ou	-0.09250158
-1.582149	<unk> par	-0.07246833
-2.569363	<unk> parry	-0.04711848
-2.547417	<unk> pas	-0.04711847
-2.891155	<unk> peuvent	-0.04711848
-2.997656	<unk> points	-0.04711849
-2.997656	<unk> possible	-0.04711848
-1.990992	<unk> pour	-0.04711848
-2.997656	<unk> pratique	-0.04711848
-2.547417	<unk> qu'	-0.04711849
-2.702597	<unk> que	-0.04711848
-2.997656	<unk> question	-0.04711848
-1.748558	<unk> qui	-0.04711848
-2.997656	<unk> reste	-0.04711847
-2.997656	<unk> règles	-0.04711848
-2.941149	<unk> sa	-0.04711848
-2.941149	<unk> se	-0.04711848
-2.997656	<unk> simple	-0.04711848
-2.673035	<unk> son	-0.04711848
-2.48754	<unk> sont	-0.04711847
-2.571557	<unk> sous	-0.04711848
-2.846327	<unk> structures	-0.04711848
-1.967849	<unk> sur	-0.04711847
-2.642758	<unk> séparément	-0.04711848
-2.941149	<unk> théories	-0.04711848
-2.891155	<unk> tous	-0.04711848
-1.736206	<unk> un	-0.1471429
-2.249542	<unk> une	-0.04711847
-2.997656	<unk> utilisé	-0.04711847
-1.443209	<unk> à	-0.08303761
-2.997656	<unk> écrit	-0.04711848
-2.997656	<unk> élémentaire	-0.04711848
-2.891155	<unk> études	-0.04711848
-0.3800323	a <unk>	-0.04711848
-1.654517	a connu	-0.04711848
-1.650336	a formé	-0.04711846
-1.650336	a également	-0.04711848
-1.650336	a émergé	-0.04711847
-1.646195	a été	-0.04711848
-0.7037944	abel donne	-0.04711848
-0.7002996	abstrait celui	-0.04711848
-1.071379	abstraite </s>
-1.281962	abstraite a	-0.04711848
-1.202101	abstraite est	-0.04711848
-1.298203	abstraite mais	-0.04711848
-0.6553684	académie des	-0.04711848
-0.6832357	accusatif en	-0.04711847
-0.6215663	actuelles de	-0.04711848
-0.5316648	ad <unk>	-0.04711848
-0.7023931	additionnés entre	-0.04711848
-0.6687548	aide d'	-0.04711848
-0.6687548	ailleurs d'	-0.04711848
-1.01036	ainsi <unk>	-0.04711848
-1.542573	ainsi chaque	-0.04711848
-1.47498	ainsi il	-0.04711848
-1.419118	ainsi le	-0.04711848
-0.5059488	ainsi que	-0.04711847
-0.5316648	al <unk>	-0.04711848
-0.5316648	albert <unk>	-0.04711848
-0.6327425	alembert </s>
-1.107606	algèbre <unk>	-0.04711848
-1.480814	algèbre abstraite	-0.09250157
-1.554467	algèbre des	-0.04711848
-1.719064	algèbre et	-0.04711848
-0.8889797	algèbre générale	-0.04711848
-0.7214032	algèbre linéaire	-0.08883712
-1.910946	algèbre moderne	-0.04711848
-1.918799	algèbre non	-0.04711847
-1.444772	algèbre qui	-0.04711848
-1.918799	algèbre élémentaire	-0.04711848
-0.6906614	algèbres sur	-0.04711847
-1.173264	algébrique c'	-0.04711848
-1.048301	algébrique des	-0.04711848
-1.175337	algébrique utilise	-0.04711848
-1.049937	algébriques </s>
-1.697652	algébriques andrew	-0.04711848
-1.611674	algébriques comme	-0.04711848
-1.516941	algébriques et	-0.04711848
-1.671302	algébriques ont	-0.04711848
-1.600672	algébriques ou	-0.04711848
-1.658704	algébriques peut	-0.04711848
-1.606138	algébriques pour	-0.04711848
-1.64646	algébriques sont	-0.04711848
-0.6812324	allier et	-0.04711848
-0.7895625	alors <unk>	-0.04711848
-1.129986	alors une	-0.04711847
-1.167102	alors être	-0.04711848
-0.7037944	an avant	-0.04711848
-1.048301	analyse des	-0.04711848
-1.151086	analyse espaces	-0.04711848
-1.179514	analyse fonctionnelle	-0.04711848
-0.5316648	andrew <unk>	-0.04711848
-0.5316648	andré <unk>	-0.04711848
-0.6927088	angle ou	-0.04711848
-1.300969	anneau disposant	-0.04711847
-1.202101	anneau est	-0.04711848
-1.258686	anneau qui	-0.04711848
-1.295453	anneau si	-0.04711848
-1.12511	anneaux </s>
-0.8664132	anneaux <unk>	-0.04711848
-1.399966	anneaux artiniens	-0.04711848
-1.347488	anneaux ou	-0.04711848
-1.344409	anneaux qui	-0.04711848
-0.7037944	antiques conjectures	-0.04711849
-0.5628591	antoine meillet	-0.04711846
-0.6872703	apparues dans	-0.04711848
-0.6845765	appellation algèbre	-0.04711849
-0.6865953	appelé une	-0.04711848
-0.6759349	application est	-0.04711847
-0.699604	applications linéaires	-0.04711847
-0.9889764	après cette	-0.04711848
-1.00133	après lui	-0.04711848
-0.5316648	arbitraire <unk>	-0.04711848
-0.6752772	arithmétiques le	-0.04711848
-0.6752772	arménien à	-0.04711848
-0.7030931	article matrice	-0.04711848
-0.718389	artin et	-0.04711849
-1.177678	artin wedderburn	-0.04711848
-0.6812324	artiniens et	-0.04711848
-0.699604	aspects linéaires	-0.04711847
-0.7030931	assiste également	-0.04711848
-0.6327425	associé </s>
-0.6752772	assure à	-0.04711848
-1.025155	au </s>
-0.9411932	au <unk>	-0.04711848
-1.214918	au collège	-0.1431865
-1.652715	au compas	-0.04711848
-1.640911	au début	-0.04711848
-1.646773	au linguiste	-0.04711847
-1.60731	au que	-0.04711848
-0.7037944	aucun détail	-0.04711848
-0.7037944	auguste carrière	-0.04711848
-0.7037944	auquel aucun	-0.04711848
-0.5316648	aurélien <unk>	-0.04711848
-0.6604195	ausdehnungslehre la	-0.04711848
-1.011859	aussi <unk>	-0.04711848
-1.698885	aussi contenir	-0.04711848
-1.476794	aussi d'	-0.04711849
-1.582237	aussi dans	-0.04711848
-1.687874	aussi divers	-0.04711848
-1.687874	aussi très	-0.04711848
-0.6397344	aussi un	-0.04711848
-1.666657	aussi être	-0.04711848
-0.689981	automorphismes du	-0.04711848
-0.689981	autour du	-0.04711848
-0.7895625	autres <unk>	-0.04711848
-1.175337	autres branches	-0.04711848
-1.175337	autres théorèmes	-0.04711848
-1.383619	aux cas	-0.04711848
-1.39343	aux dimensions	-0.04711848
-0.945958	aux espaces	-0.04711848
-1.396749	aux transformations	-0.04711848
-0.5316648	avait <unk>	-0.04711848
-0.6982162	avant que	-0.04711848
-0.7655593	avec <unk>	-0.04711848
-1.54483	avec al	-0.04711848
-1.381005	avec le	-0.04711848
-1.334812	avec les	-0.04711848
-1.517293	avec meillet	-0.04711848
-1.504152	avec son	-0.04711848
-0.699604	avère être	-0.04711848
-0.7030931	avèrent parfois	-0.04711847
-0.7037944	axiomatise entièrement	-0.04711848
-0.5316648	balkans <unk>	-0.04711848
-0.6215663	banville de	-0.04711848
-0.9691075	base de	-0.04711847
-1.167102	base peut	-0.04711848
-1.099269	base à	-0.04711848
-0.6215663	bases de	-0.04711848
-1.292721	beaucoup aux	-0.04711848
-1.041358	beaucoup de	-0.04711848
-1.261211	beaucoup ou	-0.04711848
-1.287308	beaucoup plus	-0.04711848
-0.7023931	belles lettres	-0.04711848
-0.5316648	benveniste <unk>	-0.04711848
-0.7037944	bien choisies	-0.04711848
-0.9809319	bipoints qui	-0.04711847
-1.002724	bipoints représentent	-0.04711848
-0.6327425	bloc </s>
-0.8722097	blocs </s>
-0.936762	blocs d'	-0.04711849
-0.7016941	bonnes propriétés	-0.04711848
-0.5316648	bosnie <unk>	-0.04711848
-0.7037944	bourbonnaise fils	-0.04711847
-0.5330558	branche des	-0.1863545
-1.151086	branches comme	-0.04711848
-1.048301	branches des	-0.04711848
-1.153056	branches mathématiques	-0.04711848
-0.7030931	brauer étudie	-0.04711848
-0.6215663	brut de	-0.04711848
-0.6982162	bréal au	-0.04711848
-0.9957958	burnside avec	-0.04711848
-0.9782832	burnside sur	-0.04711848
-0.09923758	c' est	-0.04711848
-0.7093949	cadre <unk>	-0.04711848
-0.8529912	cadre de	-0.04711847
-0.7023931	calcul algébrique	-0.04711848
-0.5316648	camille <unk>	-0.04711848
-0.7023931	canonique entre	-0.04711848
-0.6327425	caractéristique </s>
-0.6752772	caractérisés à	-0.04711848
-0.7037944	carl friedrich	-0.04711848
-0.6752772	carrière à	-0.04711848
-0.6215663	cartésiens de	-0.04711848
-1.302327	cas d'	-0.04711848
-1.128074	cas de	-0.04711848
-1.24747	cas des	-0.04711848
-1.470176	cas général	-0.04711848
-1.470176	cas où	-0.04711847
-1.470176	cas très	-0.04711848
-0.7009963	ce n'	-0.04711847
-1.179514	celle d	-0.04711847
-1.082165	celle d'	-0.04711848
-1.145229	celle qui	-0.04711847
-0.6553684	celles des	-0.04711848
-1.401338	celui ci	-0.04711847
-1.188973	celui de	-0.04711848
-0.3485693	celui des	-0.04711848
-0.5316648	censé <unk>	-0.04711848
-0.9214364	cependant la	-0.04711848
-0.9835969	cependant pour	-0.04711848
-0.7016941	certain nombre	-0.04711848
-1.004123	certaines entités	-0.04711848
-0.9985539	certaines structures	-0.04711846
-0.7009963	certains anneaux	-0.04711847
-1.303754	ces données	-0.04711848
-1.266307	ces espaces	-0.04711848
-1.300969	ces points	-0.04711848
-1.298203	ces problèmes	-0.04711848
-1.004123	cet environnement	-0.04711848
-0.9769649	cet espace	-0.04711846
-0.8266533	cette <unk>	-0.04711848
-1.697652	cette dernière	-0.04711848
-1.697652	cette découverte	-0.04711848
-1.677741	cette méthode	-0.04711848
-1.690913	cette question	-0.04711849
-1.617282	cette structure	-0.04711848
-1.622963	cette théorie	-0.04711848
-1.684277	cette utilisation	-0.04711848
-1.690913	cette époque	-0.04711849
-0.6574839	ceux de	-0.04711848
-1.141931	ceux du	-0.04711848
-0.6327425	cf </s>
-0.936762	chaire d'	-0.04711848
-0.8529912	chaire de	-0.04711848
-0.6872703	changement dans	-0.04711847
-0.7093949	chaque <unk>	-0.04711848
-0.9862784	chaque sous	-0.04711848
-0.5316648	charles <unk>	-0.04711848
-0.9501662	cher est	-0.04711848
-0.9743402	cher il	-0.04711848
-0.6906614	choisies sur	-0.04711847
-0.6982162	choisis sont	-0.04711848
-0.5651674	châteaumeillant cher	-0.04711847
-0.7030931	ci écrit	-0.04711847
-0.6933934	citer pour	-0.04711848
-0.6872703	cité dans	-0.04711847
-0.6687548	classe d'	-0.04711848
-0.6553684	classification des	-0.04711848
-0.666817	classique l'	-0.04711848
-0.6940791	classiques espaces	-0.04711848
-0.9943912	coefficients </s>
-1.131862	coefficients dans	-0.04711848
-1.13945	coefficients du	-0.04711848
-0.7037944	cohen georges	-0.04711848
-0.6215663	collège de	-0.1431865
-0.7037944	combinant ensuite	-0.04711848
-0.6553684	combiner des	-0.04711848
-1.843731	comme celles	-0.04711847
-1.70449	comme dans	-0.04711848
-1.51136	comme des	-0.04711848
-1.572776	comme l'	-0.04711848
-0.7700009	comme la	-0.04711848
-1.284933	comme les	-0.04711848
-1.75163	comme pour	-0.04711848
-1.830262	comme telle	-0.04711848
-0.7805162	comme un	-0.1863545
-1.167102	commence avec	-0.04711848
-1.131862	commence par	-0.04711848
-1.161027	commence son	-0.04711847
-0.6327425	commutative </s>
-0.9930552	comparée au	-0.04711848
-0.9971727	comparée qu'	-0.04711848
-0.6327425	compas </s>
-0.7895625	complexes <unk>	-0.04711848
-1.177421	complexes cependant	-0.04711848
-1.163043	complexes sont	-0.04711848
-0.6752772	complète à	-0.04711848
-0.7002996	composantes on	-0.04711848
-0.6553684	composé des	-0.04711848
-0.66553	concernent les	-0.04711848
-0.6687548	concret d'	-0.04711848
-0.7009963	concrets ont	-0.04711848
-0.7030931	condition nécessaire	-0.04711848
-0.6687548	conditions d'	-0.04711848
-0.6906614	conférence sur	-0.04711848
-0.6940791	conjectures comme	-0.04711849
-0.699604	connexions avec	-0.04711848
-0.6720037	connu un	-0.04711848
-0.7016941	consacre ses	-0.04711848
-0.6215663	conscient de	-0.04711847
-0.6604195	considérer la	-0.04711848
-0.6940791	considéré comme	-0.04711848
-0.6752772	consiste à	-0.04711849
-0.6752772	constructible à	-0.04711848
-0.936762	construction d'	-0.04711848
-1.00133	construction moderne	-0.04711848
-0.9782832	construit sur	-0.04711848
-0.9489304	construit à	-0.04711848
-0.6872703	construite par	-0.04711848
-1.004123	conséquence directe	-0.04711848
-0.9957958	conséquence meillet	-0.04711848
-1.10557	contenant est	-0.04711848
-0.7393172	contenant tous	-0.1431866
-0.6720037	contenir un	-0.04711848
-0.9691075	contient de	-0.04711848
-1.077163	contient l'	-0.04711848
-1.090633	contient un	-0.04711848
-0.6215663	copies de	-0.04711848
-0.8870344	corps </s>
-1.880053	corps comme	-0.04711848
-1.213726	corps de	-0.04711848
-1.342617	corps des	-0.04711847
-2.020606	corps disposant	-0.04711848
-1.682983	corps est	-0.04711848
-1.972326	corps fini	-0.04711848
-2.020606	corps finis	-0.04711847
-1.597735	corps k	-0.04711849
-1.583506	corps l	-0.04711848
-1.60775	corps l'	-0.04711848
-1.677155	corps le	-0.04711848
-1.972326	corps permet	-0.04711848
-1.961051	corps peut	-0.04711848
-1.961051	corps plus	-0.04711848
-1.88939	corps sous	-0.04711848
-0.6752772	correspond à	-0.04711848
-0.6574839	cours de	-0.04711848
-1.103912	cours à	-0.04711848
-0.7023931	crible général	-0.04711848
-0.6812324	créer et	-0.04711848
-0.6604195	cube la	-0.04711848
-0.6687548	célèbre d'	-0.04711848
-0.689981	côté du	-0.04711848
-0.7030931	d '	-0.04711848
-0.8027225	d' <unk>	-0.1111803
-2.376519	d' abel	-0.04711848
-2.376519	d' alembert	-0.04711848
-2.044587	d' algèbre	-0.04711848
-2.326161	d' anneau	-0.04711848
-2.376519	d' antiques	-0.04711848
-2.376519	d' application	-0.04711849
-2.376519	d' arménien	-0.04711848
-2.342307	d' artin	-0.04711847
-1.935477	d' autres	-0.04711848
-2.376519	d' endomorphisme	-0.04711848
-1.165643	d' espace	-0.3232342
-2.179585	d' espaces	-0.04711848
-2.376519	d' exposant	-0.04711848
-2.359076	d' extensions	-0.04711846
-2.359076	d' origine	-0.04711847
-0.8723632	d' un	-0.09939009
-0.766517	d' une	-0.1345174
-1.935477	d' utilisation	-0.04711848
-2.359076	d' élucider	-0.04711848
-1.935477	d' éléments	-0.04711848
-2.359076	d' équation	-0.04711848
-1.922771	d' équations	-0.1087481
-1.275417	dans <unk>	-0.04711848
-2.06932	dans cet	-0.04711847
-1.793393	dans d'	-0.04711848
-0.9599372	dans de	-0.1431866
-1.716523	dans des	-0.04711848
-2.076946	dans différents	-0.04711848
-0.9992726	dans la	-0.04711848
-0.6541266	dans le	-0.1458201
-0.7391801	dans les	-0.12521
-2.012704	dans son	-0.04711847
-1.813892	dans un	-0.04711847
-1.605058	de </s>
-0.8712934	de <unk>	-0.07551675
-2.712137	de banville	-0.04711848
-1.706627	de base	-0.04711848
-2.667897	de bipoints	-0.04711847
-2.712137	de bonnes	-0.04711848
-2.667897	de burnside	-0.04711848
-2.667897	de certaines	-0.04711848
-2.712137	de certains	-0.04711848
-2.25205	de ces	-0.04711848
-2.138974	de cette	-0.1431866
-2.667897	de châteaumeillant	-0.04711848
-2.712137	de connexions	-0.04711848
-2.712137	de considérer	-0.04711848
-2.010624	de corps	-0.04711848
-2.285604	de degré	-0.1431866
-2.591	de deux	-0.04711848
-1.324013	de dimension	-0.09250159
-2.627748	de divers	-0.04711848
-2.667897	de droite	-0.04711847
-2.712137	de facteurs	-0.04711848
-2.712137	de ferdinand	-0.04711848
-2.712137	de fermat	-0.04711848
-2.712137	de fonctions	-0.04711848
-2.667897	de formalisation	-0.04711847
-2.667897	de france	-0.04711848
-1.706627	de galois	-0.04711848
-2.285604	de grammaire	-0.1431866
-2.468934	de groupe	-0.04711848
-2.627748	de géométrie	-0.04711848
-2.667897	de huit	-0.04711846
-2.667897	de jean	-0.04711846
-2.55712	de l	-0.04711848
-0.8666483	de l'	-0.2872716
-1.298408	de la	-0.08875987
-2.627748	de leurs	-0.04711848
-2.285604	de linguistes	-0.04711848
-2.285604	de manière	-0.04711847
-2.332997	de mathématiques	-0.04711848
-2.667897	de matrices	-0.04711848
-2.285604	de milman	-0.1431865
-2.667897	de moulins	-0.04711848
-2.591	de même	-0.04711848
-2.373757	de nombres	-0.04711848
-1.540026	de nombreux	-0.12521
-2.627748	de où	-0.04711848
-2.159018	de par	-0.04711848
-2.285604	de paris	-0.04711848
-2.667897	de recherche	-0.04711848
-2.627748	de représentation	-0.04711848
-2.627748	de représenter	-0.04711847
-2.667897	de richard	-0.04711847
-2.627748	de résolution	-0.04711848
-2.667897	de résoudre	-0.04711847
-2.268503	de sa	-0.1431866
-2.285604	de saussure	-0.04711848
-2.591	de ses	-0.04711848
-2.418744	de son	-0.04711848
-2.332997	de sous	-0.04711848
-2.627748	de symétries	-0.04711848
-2.627748	de théories	-0.04711848
-2.496387	de théorème	-0.04711849
-2.667897	de travaux	-0.04711847
-2.591	de vecteurs	-0.04711847
-2.667897	de wedderburn	-0.04711848
-0.7037944	dedekind développe	-0.04711848
-0.689981	degré du	-0.04711848
-0.7023931	demeurera utilisée	-0.04711848
-0.699604	dernier théorème	-0.04711848
-0.7037944	dernière enseigne	-0.04711848
-0.8510351	des <unk>	-0.04711847
-2.01648	des anneaux	-0.04711849
-2.482507	des aspects	-0.04711848
-2.482507	des automorphismes	-0.04711848
-2.420134	des complexes	-0.04711848
-2.482507	des copies	-0.04711848
-1.839888	des corps	-0.04711848
-2.392014	des deux	-0.04711848
-2.420134	des dimensions	-0.04711848
-2.340709	des domaines	-0.04711848
-2.450202	des déplacements	-0.04711847
-2.482507	des déterminants	-0.04711848
-2.482507	des endomorphismes	-0.04711847
-2.052325	des entiers	-0.04711848
-2.040045	des exemples	-0.04711848
-2.482507	des expressions	-0.04711848
-2.482507	des figures	-0.04711848
-2.482507	des formules	-0.04711848
-2.028103	des groupes	-0.04711848
-2.450202	des idées	-0.04711846
-2.052325	des langues	-0.1431865
-2.420134	des lettres	-0.04711848
-1.28139	des mathématiques	-0.1171051
-2.450202	des mémoires	-0.04711848
-1.1727	des nombres	-0.09939007
-2.450202	des polynômes	-0.04711848
-2.052325	des premières	-0.04711848
-2.040045	des problèmes	-0.04711848
-2.450202	des quaternions	-0.04711848
-2.028103	des rationnels	-0.04711848
-2.450202	des résultats	-0.04711846
-2.052325	des scalaires	-0.04711849
-2.180633	des sous	-0.04711848
-2.365604	des structures	-0.1431865
-2.040045	des symétries	-0.04711848
-2.052325	des systèmes	-0.1431866
-2.420134	des théories	-0.04711848
-2.450202	des transformations	-0.04711848
-2.392014	des vecteurs	-0.04711848
-2.01648	des équations	-0.04711848
-2.392014	des études	-0.04711848
-0.6920252	descartes qui	-0.04711847
-0.8359788	deux <unk>	-0.04711848
-1.300969	deux bipoints	-0.04711848
-1.298203	deux branches	-0.04711848
-1.303754	deux droites	-0.04711848
-0.7037944	devait diriger	-0.04711848
-0.7023931	deviennent alors	-0.04711848
-0.6865953	devient une	-0.04711848
-0.5316648	die <unk>	-0.04711848
-0.6927088	différentielle ou	-0.04711848
-0.7002996	différents domaines	-0.04711848
-1.602128	dimension arbitraire	-0.04711848
-1.452231	dimension et	-0.04711848
-1.596737	dimension finie	-0.04711848
-1.586151	dimension infinie	-0.04711848
-1.135465	dimension ou	-0.04711848
-1.570741	dimension peut	-0.04711848
-1.596737	dimension suffisante	-0.04711848
-0.7895625	dimensions <unk>	-0.04711848
-1.177421	dimensions finies	-0.04711846
-1.149125	dimensions pour	-0.04711848
-0.66553	dire les	-0.04711848
-0.6215663	directe de	-0.04711848
-0.6812324	direction et	-0.04711848
-0.5316648	dirige <unk>	-0.04711848
-0.6604195	diriger la	-0.04711848
-0.9916914	disposant aussi	-0.04711848
-0.936762	disposant d'	-0.04711849
-0.6215663	disposer de	-0.04711848
-0.6327425	distincts </s>
-0.699604	dites linéaires	-0.04711848
-0.7895625	divers <unk>	-0.04711848
-1.1712	divers anneaux	-0.04711847
-1.163043	divers que	-0.04711848
-0.6327425	diversité </s>
-0.5316648	doctorat <unk>	-0.04711848
-1.443583	domaines aussi	-0.04711848
-1.390875	domaines dans	-0.04711847
-0.9451914	domaines des	-0.1431866
-1.478579	domaines distincts	-0.04711848
-1.42889	domaines mathématiques	-0.04711848
-0.6865953	donne une	-0.04711848
-0.6872703	donné par	-0.04711848
-0.7037944	données efficacement	-0.04711848
-0.66553	dont les	-0.04711848
-1.004123	droite caractérisés	-0.04711848
-0.9489304	droite le	-0.04711847
-0.6832357	droites en	-0.04711847
-1.352941	du </s>
-0.917196	du <unk>	-0.04711848
-1.897213	du a	-0.04711848
-1.95403	du beaucoup	-0.04711848
-1.460717	du corps	-0.04711848
-1.992069	du cube	-0.04711848
-1.966343	du début	-0.04711848
-1.966343	du développement	-0.04711847
-1.709814	du en	-0.04711848
-1.689539	du et	-0.04711848
-1.528056	du groupe	-0.04711848
-1.992069	du génitif	-0.04711848
-1.919056	du plus	-0.04711848
-1.979015	du polynôme	-0.04711848
-1.966343	du premier	-0.04711847
-1.846976	du sous	-0.04711848
-1.919056	du théorème	-0.04711848
-0.7037944	dumézil andré	-0.04711848
-0.689981	duplication du	-0.04711848
-0.5316648	dès <unk>	-0.04711848
-0.1394732	début du	-0.04711848
-0.689981	décennies du	-0.04711848
-0.6832357	décomposition en	-0.04711848
-0.66553	découverte les	-0.04711847
-0.66553	découvre les	-0.04711848
-0.7037944	découvrit gustave	-0.04711848
-0.7030931	définissant parfois	-0.04711848
-0.7002996	définit pas	-0.04711848
-0.6812324	définition et	-0.04711848
-0.5316648	définitions <unk>	-0.04711848
-0.6752772	définitivement le	-0.04711847
-0.699604	déjà avec	-0.04711848
-0.8529912	démonstration de	-0.04711848
-0.9769649	démonstration du	-0.04711848
-1.004123	déplacements additionnés	-0.04711848
-0.9717312	déplacements dans	-0.04711848
-0.7009963	détail n'	-0.04711847
-0.6872703	déterminants par	-0.04711848
-0.6215663	détermination de	-0.04711847
-0.6604195	déterminer la	-0.04711848
-0.6865953	développe une	-0.04711848
-1.004123	développement conscient	-0.04711848
-0.8529912	développement de	-0.1431866
-0.6872703	développée par	-0.04711848
-0.6872703	efficacement dans	-0.04711848
-1.281962	elle a	-0.04711848
-1.303754	elle consiste	-0.04711848
-1.298203	elle contient	-0.04711847
-1.298203	elle se	-0.04711848
-0.7016941	elles ne	-0.04711848
-0.7023931	emil artin	-0.04711848
-0.5316648	emmy <unk>	-0.04711848
-0.689981	emploi du	-0.04711848
-1.329326	en </s>
-0.5605053	en <unk>	-0.08875985
-1.030013	en algèbre	-0.1087481
-2.066627	en analyse	-0.04711848
-2.090169	en bosnie	-0.04711848
-2.078238	en conséquence	-0.04711848
-1.993027	en dimension	-0.04711848
-2.090169	en déterminer	-0.04711848
-2.066627	en général	-0.04711848
-1.882604	en il	-0.1431866
-1.677279	en les	-0.04711848
-1.603888	en mathématiques	-0.04711848
-2.078238	en particulier	-0.04711848
-2.078238	en produit	-0.04711848
-1.964941	en théorie	-0.04711847
-1.726738	en un	-0.04711848
-0.7895625	encore <unk>	-0.04711848
-1.177421	encore objet	-0.04711847
-1.177421	encore utiliser	-0.04711847
-0.6327425	endomorphisme </s>
-0.6687548	endomorphismes d'	-0.04711849
-0.7016941	enfin c'	-0.04711848
-0.6752772	enseigne le	-0.04711848
-0.936762	ensemble d'	-0.04711848
-0.9122672	ensemble des	-0.04711848
-0.7030931	ensembles blocs	-0.04711848
-0.6872703	ensuite par	-0.04711848
-0.8722097	entiers </s>
-0.9916914	entiers algébriques	-0.04711848
-0.5316648	entités <unk>	-0.04711848
-0.6327425	entière </s>
-0.6604195	entièrement la	-0.04711848
-0.6933934	entraînement pour	-0.04711848
-1.173264	entre deux	-0.04711848
-1.179514	entre eux	-0.04711847
-1.073859	entre les	-0.04711848
-0.6327425	environnement </s>
-1.076476	espace <unk>	-0.04711848
-1.444317	espace est	-0.04711848
-0.3410064	espace vectoriel	-0.1331079
-1.442096	espace à	-0.04711848
-1.655343	espaces cartésiens	-0.04711848
-1.082253	espaces de	-0.04711848
-1.642017	espaces géométriques	-0.04711848
-0.3324381	espaces vectoriels	-0.07964669
-0.6553684	essentiel des	-0.04711848
-0.6906614	essentiellement sur	-0.04711848
-0.6327425	essentielles </s>
-0.7145925	est <unk>	-0.04711848
-2.189549	est ainsi	-0.04711848
-2.278738	est appelé	-0.04711848
-2.150999	est aussi	-0.04711848
-2.24693	est celle	-0.04711848
-1.245536	est celui	-0.1087481
-2.278738	est censé	-0.04711848
-2.278738	est composé	-0.04711847
-1.398751	est de	-0.1431866
-2.278738	est donné	-0.04711848
-2.262543	est important	-0.04711847
-1.024774	est la	-0.08303762
-1.864465	est le	-0.04711847
-2.24693	est lui	-0.04711848
-2.262543	est nécessaire	-0.04711848
-2.203199	est pas	-0.04711848
-2.203199	est qu'	-0.04711848
-0.9336869	est un	-0.04711848
-1.718353	est une	-0.04711847
-1.837813	est utilisée	-0.04711848
-1.647302	est à	-0.04711847
-1.4623	et </s>
-0.6906006	et <unk>	-0.04711847
-2.081167	et au	-0.04711848
-2.138582	et aux	-0.04711848
-2.204761	et belles	-0.04711848
-2.154206	et c'	-0.04711848
-2.204761	et camille	-0.04711848
-1.709042	et cette	-0.04711848
-1.003868	et de	-0.04711848
-1.450211	et des	-0.04711848
-2.204761	et emmy	-0.04711848
-1.691101	et l'	-0.04711848
-1.639523	et la	-0.04711848
-1.560623	et le	-0.04711848
-1.680284	et les	-0.04711848
-2.154206	et leur	-0.04711848
-2.170412	et lui	-0.04711848
-2.138582	et n'	-0.04711847
-1.995979	et pour	-0.04711848
-1.974422	et qui	-0.04711848
-2.067926	et son	-0.04711848
-2.187247	et suffisante	-0.04711848
-2.187247	et utiliser	-0.04711847
-1.76886	et à	-0.04711848
-0.6982162	euclide au	-0.04711848
-0.6327425	européennes </s>
-0.6927088	eux ou	-0.04711848
-0.8099705	exemple <unk>	-0.04711848
-1.652587	exemple concret	-0.04711847
-1.652587	exemple célèbre	-0.04711847
-1.414171	exemple d'	-0.04711848
-1.499686	exemple en	-0.04711847
-1.454827	exemple est	-0.04711848
-1.370567	exemple la	-0.04711848
-1.45097	exemple le	-0.04711848
-0.7895625	exemples <unk>	-0.04711848
-1.179514	exemples concrets	-0.04711848
-1.082165	exemples d'	-0.04711847
-0.7002996	exposant fini	-0.04711848
-0.697524	expressions algébriques	-0.04711848
-0.8529912	extension de	-0.04711848
-0.9835969	extension linéaire	-0.04711848
-0.7093949	extensions <unk>	-0.04711848
-1.002724	extensions finies	-0.04711849
-0.6759349	externe est	-0.04711848
-0.5316648	facteurs <unk>	-0.04711848
-0.6553684	faculté des	-0.04711848
-0.7030931	faisait partie	-0.04711848
-0.7016941	fait ses	-0.04711848
-0.6215663	faite de	-0.04711848
-0.6215663	ferdinand de	-0.04711848
-0.6327425	fermat </s>
-0.7037944	figures constructible	-0.04711848
-0.6687548	fils d'	-0.04711848
-0.7093949	fin <unk>	-0.04711848
-0.9769649	fin du	-0.04711848
-0.9033943	fini </s>
-1.306893	fini d'	-0.04711848
-1.135599	fini de	-0.04711848
-1.404317	fini du	-0.04711848
-1.390875	fini par	-0.04711848
-0.7093949	finie <unk>	-0.04711848
-0.9639972	finie en	-0.04711848
-0.7093949	finies <unk>	-0.04711848
-0.9122672	finies des	-0.04711848
-0.9501662	finis est	-0.04711848
-0.9822624	finis ou	-0.04711848
-0.6872703	fois par	-0.04711848
-0.6604195	fonctionnelle la	-0.04711848
-0.6327425	fonctions </s>
-0.6933934	fondamental pour	-0.04711848
-0.6872703	fondamentale dans	-0.04711848
-0.6906614	fonde sur	-0.04711848
-0.6215663	fondement de	-0.04711847
-0.7037944	fondée essentiellement	-0.04711848
-0.5628591	formalisation générale	-0.04711848
-0.699604	formant ainsi	-0.04711848
-0.6604195	forme la	-0.04711848
-1.161027	forment aussi	-0.04711848
-1.099269	forment le	-0.04711847
-1.090633	forment un	-0.04711847
-0.6215663	formulaïque de	-0.04711847
-0.6812324	formules et	-0.04711848
-0.7093949	formé <unk>	-0.04711847
-0.9782832	formé sur	-0.04711848
-0.9601812	france et	-0.04711848
-1.00133	france où	-0.04711848
-0.7093949	français <unk>	-0.04711848
-0.9122672	français des	-0.04711848
-0.7037944	friedrich gauss	-0.04711847
-0.6752772	frobenius à	-0.04711848
-1.175337	galois contient	-0.04711848
-1.101017	galois est	-0.04711848
-1.173264	galois peuvent	-0.04711847
-0.7030931	gauss trouve	-0.04711848
-0.7037944	georg frobenius	-0.04711848
-0.7037944	georges dumézil	-0.04711848
-0.6961427	gigaoctets cette	-0.04711848
-0.5316648	giuseppe <unk>	-0.04711848
-0.7030931	gl n	-0.04711848
-0.7016941	gnfs méthode	-0.04711848
-0.7030931	grammaire comparée	-0.04711848
-0.6327425	grammaticalisation </s>
-0.7037944	grande diversité	-0.04711848
-0.5316648	grandement <unk>	-0.04711848
-0.6327425	grassman </s>
-0.5316648	grassmann <unk>	-0.04711848
-0.6812324	grecque et	-0.04711848
-0.98905	groupe </s>
-1.602128	groupe associé	-0.04711848
-1.591411	groupe contient	-0.04711847
-1.185264	groupe de	-0.04711848
-1.422538	groupe est	-0.04711848
-1.575817	groupe fini	-0.04711848
-1.527543	groupe linéaire	-0.04711848
-0.8359788	groupes <unk>	-0.04711848
-1.178442	groupes d'	-0.04711848
-1.136567	groupes des	-0.04711848
-1.300969	groupes finis	-0.04711849
-0.6327425	guillaume </s>
-0.7037944	gustave guillaume	-0.04711848
-0.7037944	génitif accusatif	-0.04711848
-0.9943912	général </s>
-0.9691075	général de	-0.04711848
-1.141368	général sur	-0.04711848
-1.195954	générale </s>
-0.9040258	générale <unk>	-0.04711848
-1.156401	générale de	-0.04711848
-1.28516	générale des	-0.04711848
-1.4731	générale ou	-0.04711848
-1.539864	générale possède	-0.04711848
-1.511915	générale s'	-0.04711848
-0.6687548	généralisation d'	-0.04711848
-0.666817	généralisent l'	-0.04711848
-0.9943912	géométrie </s>
-1.151086	géométrie comme	-0.04711849
-1.179514	géométrie différentielle	-0.04711847
-0.6955325	géométriques <unk>	-0.04711848
-1.099589	géométriques de	-0.04711848
-1.3772	géométriques s'	-0.04711848
-1.358492	géométriques sous	-0.04711848
-0.7093949	hamilton <unk>	-0.04711848
-0.9930552	hamilton que	-0.04711848
-0.8529912	histoire de	-0.04711847
-0.9601812	histoire et	-0.04711848
-0.7093949	huit <unk>	-0.04711848
-1.00133	huit dimensions	-0.04711848
-0.9501662	ici est	-0.04711848
-0.9999396	ici tous	-0.04711848
-0.7093949	idées <unk>	-0.04711848
-0.9985539	idées géométriques	-0.04711848
-0.6760109	il <unk>	-0.04711848
-1.850858	il a	-0.04711848
-1.924757	il assiste	-0.04711847
-1.924757	il assure	-0.04711848
-1.924757	il complète	-0.04711848
-1.924757	il consacre	-0.04711848
-1.924757	il correspond	-0.04711848
-1.361194	il est	-0.08303761
-1.924757	il fait	-0.04711848
-1.567726	il l'	-0.04711848
-1.629446	il le	-0.04711848
-1.477167	il n'	-0.1431865
-1.895552	il ne	-0.04711848
-0.7093949	iliade <unk>	-0.04711847
-0.9809319	iliade qui	-0.04711848
-0.9717312	important dans	-0.04711848
-0.9639972	important en	-0.04711848
-0.7704959	infinie </s>
-1.20641	infinie est	-0.04711848
-1.223789	infinie et	-0.04711848
-0.9985539	intéresse aux	-0.04711848
-0.9999396	intéresse beaucoup	-0.04711848
-0.7093949	jean <unk>	-0.04711847
-0.936762	jean d'	-0.04711848
-1.00133	jusqu' alors	-0.04711848
-0.9489304	jusqu' à	-0.04711848
-0.8722097	k </s>
-0.9769649	k du	-0.04711848
-1.396494	l '	-0.04711848
-1.311912	l algèbre	-0.04711847
-1.399966	l article	-0.04711847
-1.393049	l contenant	-0.04711848
-1.297908	l et	-0.04711848
-0.8313553	l' <unk>	-0.0692175
-2.266906	l' académie	-0.04711847
-2.266906	l' aide	-0.04711847
-0.9360611	l' algèbre	-0.3042462
-1.825933	l' analyse	-0.04711848
-2.266906	l' angle	-0.04711847
-2.266906	l' appellation	-0.04711848
-2.266906	l' emploi	-0.04711848
-1.825933	l' ensemble	-0.1431866
-2.266906	l' entraînement	-0.04711848
-1.210892	l' espace	-0.1087481
-2.266906	l' essentiel	-0.04711847
-2.148403	l' exemple	-0.04711848
-2.250201	l' extension	-0.04711848
-1.832147	l' histoire	-0.04711849
-1.832147	l' iliade	-0.04711848
-2.250201	l' origine	-0.04711848
-2.234114	l' utilise	-0.04711848
-1.825933	l' école	-0.04711848
-2.250201	l' époque	-0.04711849
-1.072285	l' étude	-0.1431866
-0.7014988	la <unk>	-0.104792
-2.400033	la branche	-0.1431866
-2.011037	la chaire	-0.04711848
-2.444095	la classification	-0.04711847
-2.011037	la construction	-0.04711847
-2.27368	la dimension	-0.04711848
-2.421505	la droite	-0.04711848
-2.444095	la duplication	-0.04711848
-2.444095	la décomposition	-0.04711848
-2.444095	la définition	-0.04711848
-2.011037	la démonstration	-0.04711848
-2.444095	la détermination	-0.04711848
-2.444095	la faculté	-0.04711847
-2.002566	la fin	-0.1431866
-2.444095	la fois	-0.04711848
-2.444095	la grammaticalisation	-0.04711848
-2.444095	la généralisation	-0.04711847
-2.002566	la géométrie	-0.04711848
-1.42053	la notion	-0.1087481
-2.323406	la plus	-0.04711848
-2.011037	la première	-0.04711847
-2.421505	la recherche	-0.04711846
-2.400033	la représentation	-0.04711848
-2.002566	la résolution	-0.04711847
-1.037114	la structure	-0.07246834
-2.421505	la suite	-0.1431865
-2.421505	la thèse	-0.04711848
-0.8992856	la théorie	-0.170116
-2.400033	la tradition	-0.04711848
-0.5316648	langues <unk>	-0.04711848
-0.5994786	le <unk>	-0.06921749
-2.250827	le cadre	-0.04711848
-2.267232	le calcul	-0.04711848
-2.190781	le cas	-0.04711848
-2.235019	le contenant	-0.04711848
-0.9404224	le corps	-0.07684098
-2.235019	le cours	-0.04711849
-2.267232	le crible	-0.04711848
-2.267232	le dernier	-0.04711848
-2.267232	le dirige	-0.04711848
-2.267232	le doctorat	-0.04711848
-2.235019	le début	-0.04711848
-2.235019	le développement	-0.1431866
-2.267232	le fondement	-0.04711848
-1.797011	le groupe	-0.04711848
-1.238802	le nom	-0.1863545
-2.176983	le plus	-0.04711848
-2.250827	le polynôme	-0.04711846
-1.826286	le premier	-0.04711848
-2.250827	le produit	-0.04711846
-2.176983	le théorème	-0.04711849
-2.250827	le travail	-0.04711848
-1.849459	le à	-0.04711848
-0.6778315	les <unk>	-0.04711848
-1.918	les applications	-0.1431865
-2.350454	les balkans	-0.04711848
-2.350454	les bases	-0.04711848
-2.302465	les branches	-0.04711848
-2.239164	les cas	-0.04711847
-2.350454	les classiques	-0.04711849
-2.302465	les coefficients	-0.04711848
-2.350454	les combinant	-0.04711848
-2.350454	les conditions	-0.04711847
-1.980575	les corps	-0.04711848
-2.302465	les cours	-0.04711849
-2.239164	les domaines	-0.04711848
-2.350454	les définitions	-0.04711848
-2.325797	les déplacements	-0.04711848
-1.810601	les espaces	-0.3804825
-2.325797	les extensions	-0.04711848
-2.280324	les groupes	-0.04711848
-2.325797	les idées	-0.04711848
-2.325797	les matrices	-0.04711847
-2.325797	les mémoires	-0.04711847
-1.833133	les nombres	-0.04711848
-2.325797	les polynômes	-0.04711848
-1.899648	les propriétés	-0.1431866
-2.325797	les quaternions	-0.04711848
-2.280324	les rationnels	-0.04711848
-2.325797	les règles	-0.04711848
-2.325797	les résultats	-0.04711849
-1.328542	les sciences	-0.1087481
-2.105086	les sous	-0.04711848
-2.259256	les structures	-0.04711846
-2.302465	les théorèmes	-0.04711848
-2.325797	les travaux	-0.04711847
-2.280324	les vecteurs	-0.04711849
-2.280324	les études	-0.04711848
-0.9691075	lettres de	-0.04711848
-1.120724	lettres en	-0.04711848
-1.177421	lettres recherches	-0.04711848
-0.6423387	leur <unk>	-0.04711848
-1.303883	leur direction	-0.04711848
-1.303883	leur forme	-0.04711848
-0.5660143	leurs <unk>	-0.04711848
-1.177678	leurs recherches	-0.04711847
-1.004123	linguiste auguste	-0.04711848
-1.002724	linguiste français	-0.04711849
-0.7093949	linguistes <unk>	-0.04711848
-1.002724	linguistes français	-0.04711846
-1.299623	linéaire </s>
-0.8634958	linéaire <unk>	-0.04711847
-1.792224	linéaire commence	-0.04711848
-1.809524	linéaire devient	-0.04711848
-1.546333	linéaire est	-0.04711847
-1.586662	linéaire et	-0.04711848
-1.809524	linéaire gl	-0.04711847
-1.792224	linéaire moderne	-0.04711848
-1.7675	linéaire permet	-0.04711848
-1.7675	linéaire qu'	-0.04711848
-1.68066	linéaire qui	-0.04711848
-1.541546	linéaire à	-0.04711849
-1.195954	linéaires </s>
-0.9040258	linéaires <unk>	-0.04711848
-1.34535	linéaires d'	-0.04711848
-1.441288	linéaires dans	-0.04711848
-1.28516	linéaires des	-0.04711848
-1.408082	linéaires et	-0.04711848
-1.539864	linéaires formalisation	-0.04711847
-0.9943912	lui </s>
-0.7895625	lui <unk>	-0.04711848
-1.145229	lui qui	-0.04711848
-0.9214364	maintenant la	-0.04711848
-0.9489304	maintenant le	-0.04711847
-0.7895625	mais <unk>	-0.04711848
-1.161027	mais aussi	-0.04711848
-1.177421	mais reste	-0.04711848
-0.9985539	manière abstraite	-0.04711848
-1.004123	manière ad	-0.04711848
-1.074381	mathématiques </s>
-0.9474906	mathématiques <unk>	-0.04711848
-1.588248	mathématiques dans	-0.04711848
-1.385044	mathématiques des	-0.04711848
-1.543087	mathématiques et	-0.04711848
-1.730945	mathématiques jusqu'	-0.04711848
-1.730945	mathématiques notamment	-0.04711847
-1.632756	mathématiques ou	-0.04711848
-1.626937	mathématiques qui	-0.04711848
-1.502184	mathématiques à	-0.04711849
-0.9639972	matrice en	-0.04711848
-0.9717312	matrice par	-0.04711848
-1.004123	matrices cf	-0.04711848
-0.8529912	matrices de	-0.04711848
-1.312809	meillet </s>
-0.2938306	meillet <unk>	-0.09250158
-1.5329	meillet celui	-0.04711848
-1.546767	meillet devait	-0.04711848
-0.7009963	milman parry	-0.04711847
-0.9943912	moderne </s>
-1.169147	moderne permet	-0.04711848
-1.165068	moderne s'	-0.04711848
-0.8722097	moulins </s>
-1.004123	moulins allier	-0.04711848
-1.004123	mémoires actuelles	-0.04711848
-0.936762	mémoires d'	-0.04711848
-0.6423387	méthode <unk>	-0.04711848
-1.29596	méthode beaucoup	-0.04711848
-1.290757	méthode permet	-0.04711848
-1.303754	même citer	-0.04711848
-1.241407	même dans	-0.04711848
-1.295453	même infinie	-0.04711848
-1.300969	même vecteur	-0.04711848
-0.8722097	n </s>
-1.004123	n composantes	-0.04711848
-0.8494533	n' <unk>	-0.04711848
-0.8279926	n' est	-0.1087481
-1.301226	n' y	-0.04711848
-0.8359788	ne <unk>	-0.04711848
-1.298203	ne commence	-0.04711847
-1.303754	ne définit	-0.04711848
-1.298203	ne se	-0.04711848
-0.6215663	nom de	-0.04711848
-1.082165	nombre d'	-0.04711848
-0.9691075	nombre de	-0.04711848
-1.169147	nombre fini	-0.04711849
-1.263062	nombres </s>
-1.640466	nombres algébriques	-0.04711848
-1.684277	nombres complexes	-0.04711848
-1.697652	nombres formant	-0.04711848
-1.697652	nombres gnfs	-0.04711848
-1.606138	nombres pour	-0.04711848
-1.677741	nombres rationnels	-0.04711848
-1.257604	nombres réels	-0.04711848
-1.690913	nombres étudie	-0.04711848
-1.169147	nombreux domaines	-0.04711848
-1.175337	nombreux exemples	-0.04711848
-1.175337	nombreux théorèmes	-0.04711848
-0.7093949	non <unk>	-0.04711848
-1.004123	non commutative	-0.04711848
-0.9639972	notamment en	-0.04711848
-0.9308034	notamment les	-0.04711848
-0.936762	notion d'	-0.1431866
-0.8529912	notion de	-0.04711848
-0.9876252	nouvelle théorie	-0.04711848
-0.9489304	nouvelle à	-0.04711848
-0.9717312	nécessaire dans	-0.04711848
-0.9601812	nécessaire et	-0.04711848
-0.5096248	objet de	-0.04711848
-1.009529	on <unk>	-0.04711848
-0.4400885	on peut	-0.04711848
-1.474221	on utilise	-0.04711848
-1.477012	on y	-0.04711848
-0.6955325	ont <unk>	-0.04711849
-1.383619	ont pas	-0.04711848
-1.352431	ont pour	-0.04711848
-1.396749	ont émergé	-0.04711849
-0.8722097	orale </s>
-0.7093949	orale <unk>	-0.04711848
-1.004123	origine bourbonnaise	-0.04711848
-0.936762	origine d'	-0.04711849
-0.9766648	ou <unk>	-0.04711848
-1.671834	ou algèbre	-0.04711848
-1.897893	ou caractéristique	-0.04711848
-1.877209	ou complexes	-0.04711848
-1.28024	ou de	-0.04711848
-1.453782	ou des	-0.04711848
-1.659425	ou en	-0.04711847
-1.457502	ou encore	-0.04711848
-1.265108	ou la	-0.04711848
-1.285308	ou les	-0.04711848
-1.867225	ou peuvent	-0.04711848
-1.838581	ou plus	-0.04711848
-1.732531	ou sur	-0.04711848
-1.004123	outil fondamental	-0.04711848
-1.002724	outil utilisé	-0.04711847
-0.7259461	où il	-0.04711849
-1.082917	où l'	-0.04711848
-0.9316788	par <unk>	-0.04711848
-2.050852	par ailleurs	-0.04711847
-2.02165	par artin	-0.04711848
-2.050852	par bloc	-0.04711848
-2.036006	par blocs	-0.04711848
-2.036006	par burnside	-0.04711848
-1.33248	par des	-0.04711848
-2.050852	par emil	-0.04711848
-2.050852	par euclide	-0.04711848
-1.578394	par exemple	-0.04711848
-2.050852	par giuseppe	-0.04711848
-2.050852	par grassman	-0.04711848
-2.036006	par hamilton	-0.04711849
-2.036006	par jean	-0.04711848
-1.387862	par l'	-0.04711848
-1.576306	par les	-0.04711847
-2.007754	par leur	-0.04711848
-2.02165	par leurs	-0.04711847
-1.779147	par une	-0.04711848
-1.004123	parfois essentielles	-0.04711848
-0.9428036	parfois un	-0.04711847
-0.9743402	paris il	-0.04711847
-0.9489304	paris à	-0.04711848
-1.132769	parry </s>
-1.301383	parry et	-0.04711848
-1.390135	parry ne	-0.04711848
-0.9141055	parry à	-0.1431865
-0.8722097	particulier </s>
-0.9717312	particulier par	-0.04711848
-0.8529912	partie de	-0.04711847
-0.9122672	partie des	-0.04711848
-0.6215663	partir de	-0.04711848
-0.8879562	pas <unk>	-0.04711848
-1.462057	pas aux	-0.04711848
-1.302327	pas d'	-0.04711849
-1.26756	pas la	-0.04711848
-1.474294	pas possible	-0.04711848
-1.470176	pas été	-0.04711848
-1.382145	permet d'	-0.04711848
-0.2602805	permet de	-0.09250157
-1.432337	permet par	-0.04711848
-1.133747	petit corps	-0.04711848
-1.173264	petit nombre	-0.04711848
-1.153056	petit sous	-0.04711848
-1.01036	peut <unk>	-0.04711848
-1.515569	peut aussi	-0.04711848
-1.54607	peut créer	-0.04711848
-1.539104	peut tout	-0.04711848
-0.5065894	peut être	-0.0471185
-0.8359788	peuvent <unk>	-0.04711848
-1.298203	peuvent alors	-0.04711847
-1.279313	peuvent aussi	-0.04711848
-1.287308	peuvent être	-0.04711848
-0.778648	plus <unk>	-0.04711848
-0.9360833	plus de	-0.04711848
-1.105249	plus petit	-0.04711848
-1.540626	plus simple	-0.04711848
-0.9501662	points est	-0.04711848
-1.00133	points forment	-0.04711847
-0.7093949	polynôme <unk>	-0.04711848
-0.9957958	polynôme ainsi	-0.04711847
-0.9601812	polynômes et	-0.04711848
-0.9489304	polynômes à	-0.04711848
-0.936762	possible d'	-0.04711848
-0.8529912	possible de	-0.04711848
-0.9999396	possède beaucoup	-0.04711848
-0.9704326	possède une	-0.04711847
-1.889818	pour chaque	-0.04711846
-1.899115	pour combiner	-0.04711847
-1.899115	pour disposer	-0.04711848
-1.681844	pour en	-0.04711848
-0.8136675	pour la	-0.04711848
-1.618339	pour le	-0.04711848
-1.302934	pour les	-0.04711847
-1.846099	pour plus	-0.04711848
-1.458832	pour représenter	-0.04711847
-1.821835	pour son	-0.04711847
-1.889818	pour élucider	-0.04711848
-1.880715	pour éléments	-0.04711847
-0.9122672	pratique des	-0.04711848
-1.00133	pratique mais	-0.04711848
-1.175337	premier contenant	-0.04711848
-1.163043	premier exemple	-0.04711848
-1.099269	premier à	-0.04711849
-0.7093949	première <unk>	-0.04711848
-0.9122672	première des	-0.04711848
-1.004123	premières décennies	-0.04711848
-0.9999396	premières propriétés	-0.04711848
-0.7895625	problèmes <unk>	-0.04711848
-0.9691075	problèmes de	-0.04711848
-1.11526	problèmes et	-0.04711848
-0.7093949	produit <unk>	-0.04711848
-0.8529912	produit de	-0.04711848
-1.179514	propriétés arithmétiques	-0.04711848
-1.048301	propriétés des	-0.04711848
-1.1712	propriétés géométriques	-0.04711848
-1.447335	qu' au	-0.04711848
-1.337979	qu' est	-0.04711847
-1.397544	qu' il	-0.04711848
-1.034389	qu' on	-0.04711847
-1.387579	qu' une	-0.04711848
-0.9849355	quaternions comme	-0.04711848
-1.002724	quaternions extension	-0.04711848
-1.110611	que l'	-0.04711847
-1.093771	que la	-0.04711848
-1.454443	que le	-0.04711847
-1.401018	que les	-0.04711848
-1.528658	que par	-0.04711848
-1.629419	que parry	-0.04711848
-1.635127	que ses	-0.04711848
-0.9930552	question a	-0.04711847
-1.00133	question encore	-0.04711848
-0.6396748	qui <unk>	-0.04711848
-1.901144	qui a	-0.04711847
-1.952851	qui avait	-0.04711848
-1.952851	qui axiomatise	-0.04711848
-1.952851	qui découvrit	-0.04711848
-0.7364718	qui est	-0.09250157
-1.952851	qui généralisent	-0.04711848
-0.9139638	qui s'	-0.04711848
-1.498097	qui sont	-0.1431866
-0.7704959	rationnels </s>
-1.173608	rationnels les	-0.04711848
-1.263204	rationnels ou	-0.04711848
-0.8722097	recherche </s>
-0.7093949	recherche <unk>	-0.04711848
-1.004123	recherches dont	-0.04711848
-0.9782832	recherches sur	-0.04711848
-0.7895625	représentation <unk>	-0.04711848
-1.179514	représentation construite	-0.04711848
-1.082165	représentation d'	-0.04711848
-0.7093949	représentent <unk>	-0.04711848
-0.9428036	représentent un	-0.04711848
-1.177421	représenter certaines	-0.04711847
-1.099269	représenter le	-0.04711848
-1.090633	représenter un	-0.04711848
-1.004123	reste grandement	-0.04711848
-1.00133	reste très	-0.04711848
-1.004123	richard brauer	-0.04711847
-1.004123	richard dedekind	-0.04711848
-0.8529912	règles de	-0.04711848
-0.9971727	règles qu'	-0.04711848
-0.9943912	réels </s>
-1.177421	réels cependant	-0.04711848
-1.147173	réels ou	-0.04711848
-1.082165	résolution d'	-0.04711849
-1.048301	résolution des	-0.04711848
-1.131862	résolution par	-0.04711847
-0.936762	résoudre d'	-0.04711848
-1.00133	résoudre tout	-0.04711847
-0.7093949	résultats <unk>	-0.04711848
-0.9930552	résultats sont	-0.04711848
-0.7720543	s' <unk>	-0.04711848
-1.544959	s' avère	-0.04711848
-1.544959	s' avèrent	-0.04711847
-1.453789	s' il	-0.04711848
-1.106787	s' intéresse	-0.04711848
-0.7093949	sa <unk>	-0.04711848
-1.002724	sa thèse	-0.04711848
-0.9489304	saussure le	-0.04711848
-0.9489304	saussure à	-0.04711848
-0.9717312	scalaires dans	-0.04711848
-0.9889764	scalaires nombres	-0.04711848
-0.7093949	sciences <unk>	-0.04711848
-0.8529912	sciences de	-0.04711847
-0.5660143	se <unk>	-0.04711849
-1.179644	se fonde	-0.04711848
-0.8359788	ses <unk>	-0.04711848
-1.298203	ses cours	-0.04711848
-1.268877	ses sous	-0.04711848
-1.295453	ses études	-0.04711848
-1.158092	si la	-0.04711848
-0.8271025	si le	-0.04711848
-1.280534	si son	-0.04711848
-0.936762	simple d'	-0.04711848
-0.9308034	simple les	-0.04711848
-0.4167742	son <unk>	-0.04711848
-1.694971	son cadre	-0.04711846
-1.672033	son théorème	-0.04711848
-1.694971	son travail	-0.04711848
-1.254685	son étude	-0.04711848
-1.694971	son étudiant	-0.04711848
-1.602128	sont apparues	-0.04711848
-1.148628	sont aussi	-0.04711848
-1.384767	sont d'	-0.04711849
-1.185264	sont de	-0.04711848
-1.320675	sont des	-0.04711848
-1.368627	sont les	-0.04711847
-1.418965	sont à	-0.04711849
-0.9395999	sous <unk>	-0.04711848
-1.811571	sous algèbres	-0.04711848
-1.791591	sous anneau	-0.04711848
-1.78513	sous anneaux	-0.04711848
-0.602788	sous corps	-0.04711848
-1.811571	sous ensembles	-0.04711847
-1.791591	sous groupes	-0.04711848
-1.591694	sous le	-0.04711847
-1.791591	sous leur	-0.04711848
-1.282024	structure </s>
-0.8457022	structure <unk>	-0.1087481
-1.464426	structure d'	-0.1087481
-1.590511	structure dans	-0.04711848
-1.048019	structure de	-0.04711848
-1.38925	structure des	-0.04711848
-1.738481	structure développée	-0.04711848
-1.738481	structure formulaïque	-0.04711848
-1.696501	structure générale	-0.04711848
-0.2645006	structures algébriques	-0.04711847
-1.303705	structures objet	-0.04711847
-0.8722097	suffisante </s>
-0.8529912	suffisante de	-0.04711848
-0.6215663	suite de	-0.04711848
-1.987109	sur ceux	-0.04711849
-1.689862	sur des	-0.04711848
-0.7787584	sur l'	-0.09250157
-1.436896	sur la	-0.04711847
-1.795768	sur le	-0.04711848
-0.5739461	sur les	-0.07684097
-1.925565	sur sous	-0.04711848
-0.7817449	sur un	-0.1471429
-1.179514	symétries bien	-0.04711848
-1.082165	symétries d'	-0.04711848
-0.9691075	symétries de	-0.04711847
-0.6687548	systèmes d'	-0.1431866
-0.8722097	séparément </s>
-0.9782832	séparément sur	-0.04711848
-0.5660143	telle <unk>	-0.04711848
-1.175722	telle tradition	-0.04711848
-0.8529912	thèse de	-0.04711848
-0.9835969	thèse pour	-0.04711848
-0.9487721	théorie <unk>	-0.04711848
-1.641285	théorie algébrique	-0.04711848
-1.215155	théorie de	-0.04711848
-1.083299	théorie des	-0.1252101
-1.157079	théorie en	-0.1431866
-1.136979	théorie est	-0.04711848
-0.6919665	théories des	-0.04711848
-1.173774	théories ne	-0.04711848
-1.021838	théorème <unk>	-0.04711848
-1.048983	théorème d'	-0.04711848
-0.4702508	théorème de	-0.04711848
-1.486254	théorème sur	-0.04711848
-0.9943912	théorèmes </s>
-1.179514	théorèmes concernent	-0.04711848
-0.9691075	théorèmes de	-0.04711848
-0.1370361	tous les	-0.09250157
-1.173264	tout anneau	-0.04711848
-0.9691075	tout de	-0.04711848
-1.090633	tout un	-0.04711848
-0.9943912	tradition </s>
-0.7895625	tradition <unk>	-0.04711848
-1.177421	tradition orale	-0.04711846
-0.9985539	transformations géométriques	-0.04711848
-0.9957958	transformations linéaires	-0.04711848
-0.9957958	travail avec	-0.04711848
-0.8529912	travail de	-0.04711848
-0.5096248	travaux de	-0.04711848
-0.9308034	trouve les	-0.04711848
-0.9704326	trouve une	-0.04711848
-0.7895625	très <unk>	-0.04711848
-1.179514	très abstrait	-0.04711848
-1.173264	très utilisés	-0.04711848
-0.761477	un <unk>	-0.06670578
-2.24601	un an	-0.04711848
-2.204442	un anneau	-0.04711848
-2.178788	un cas	-0.04711848
-2.24601	un certain	-0.04711848
-0.9194968	un corps	-0.08303762
-2.217861	un ensemble	-0.04711848
-0.9215586	un espace	-0.7092333
-2.142942	un exemple	-0.04711848
-2.217861	un fin	-0.04711846
-1.209222	un groupe	-0.04711848
-2.204442	un même	-0.04711848
-1.800022	un nombre	-0.1431866
-1.810563	un outil	-0.04711848
-2.217861	un petit	-0.04711848
-1.750844	un sous	-0.1431866
-1.784675	un théorème	-0.04711848
-2.231707	un vecteur	-0.04711848
-0.6735248	une <unk>	-0.09250157
-2.030415	une branche	-0.04711847
-2.053957	une classe	-0.04711847
-2.053957	une condition	-0.04711847
-2.053957	une conférence	-0.04711848
-2.042027	une conséquence	-0.04711847
-2.053957	une grande	-0.04711848
-2.042027	une matrice	-0.04711847
-1.609065	une méthode	-0.04711848
-2.042027	une nouvelle	-0.04711848
-2.042027	une partie	-0.04711849
-2.030415	une représentation	-0.04711848
-1.009893	une structure	-0.1111803
-1.613429	une telle	-0.0471185
-2.030415	une tradition	-0.04711848
-2.042027	une équation	-0.04711846
-0.7895625	utilisation <unk>	-0.04711848
-0.9691075	utilisation de	-0.04711848
-1.169147	utilisation on	-0.04711848
-1.048301	utilise des	-0.04711848
-1.179514	utilise déjà	-0.04711848
-1.149125	utilise pour	-0.04711848
-0.5330558	utiliser des	-0.04711848
-0.5519468	utilisé en	-0.04711848
-1.163043	utilisée au	-0.04711848
-1.131862	utilisée dans	-0.04711848
-0.9691075	utilisée de	-0.04711848
-1.287308	utilisés ainsi	-0.04711847
-1.292721	utilisés ont	-0.04711848
-1.263752	utilisés pour	-0.04711848
-1.281962	utilisés sont	-0.04711848
-1.002724	vecteur ici	-0.04711849
-0.9999396	vecteur si	-0.04711848
-0.8359788	vecteurs <unk>	-0.04711848
-1.241407	vecteurs dans	-0.04711848
-1.295453	vecteurs peuvent	-0.04711848
-1.199896	vecteurs à	-0.04711848
-1.257878	vectoriel </s>
-0.9345402	vectoriel <unk>	-0.04711848
-1.690661	vectoriel construit	-0.04711848
-1.212569	vectoriel de	-0.1431866
-1.479248	vectoriel est	-0.04711847
-1.664247	vectoriel fini	-0.04711848
-1.567062	vectoriel il	-0.04711848
-1.690661	vectoriel particulier	-0.04711848
-1.690661	vectoriel possède	-0.04711848
-1.582708	vectoriel sur	-0.04711848
-1.240956	vectoriels </s>
-1.652459	vectoriels choisis	-0.04711848
-1.197295	vectoriels de	-0.04711848
-1.652459	vectoriels deviennent	-0.04711848
-1.484023	vectoriels et	-0.04711848
-1.640164	vectoriels forment	-0.04711848
-1.62235	vectoriels permet	-0.04711848
-1.646268	vectoriels représentent	-0.04711846
-1.634144	vectoriels utilisés	-0.04711848
-0.8722097	wedderburn </s>
-0.9717312	wedderburn par	-0.04711848
-0.9985539	y ont	-0.04711848
-1.002724	y trouve	-0.04711848
-0.7465074	à <unk>	-0.07246833
-2.264892	à celle	-0.04711848
-2.159575	à cette	-0.04711848
-2.264892	à ceux	-0.04711849
-2.278341	à châteaumeillant	-0.04711848
-2.264892	à coefficients	-0.04711848
-2.29222	à côté	-0.04711848
-1.577136	à de	-0.04711848
-1.5877	à des	-0.04711848
-2.29222	à dire	-0.04711848
-2.278341	à huit	-0.04711848
-0.8585388	à l'	-0.07246833
-0.6194983	à la	-0.1161535
-2.278341	à moulins	-0.04711847
-2.278341	à n	-0.04711847
-1.856653	à partir	-0.1431865
-2.180871	à son	-0.04711847
-1.889748	à un	-0.04711848
-2.034104	à une	-0.04711848
-1.048301	école des	-0.04711848
-1.179514	école grecque	-0.04711848
-1.177421	école pratique	-0.04711849
-1.004123	écrit cité	-0.04711848
-0.9782832	écrit sur	-0.04711848
-0.9489304	également à	-0.04711848
-1.00133	également été	-0.04711848
-0.9889764	élucider cette	-0.04711848
-0.9214364	élucider la	-0.04711848
-0.9889764	élémentaire cette	-0.04711848
-0.9971727	élémentaire permet	-0.04711848
-1.175337	éléments ceux	-0.04711848
-1.179514	éléments définissant	-0.04711847
-1.073859	éléments les	-0.04711848
-0.9930552	émergé au	-0.04711848
-1.004123	émergé autour	-0.04711848
-0.9122672	époque des	-0.04711848
-0.9930552	époque que	-0.04711848
-0.7093949	équation <unk>	-0.04711848
-0.9835969	équation linéaire	-0.04711847
-0.8359788	équations <unk>	-0.04711848
-1.279313	équations algébriques	-0.04711848
-1.303754	équations dites	-0.04711848
-1.287308	équations linéaires	-0.04711848
-1.071379	étude </s>
-1.041358	étude de	-0.04711848
-1.136567	étude des	-0.1431865
-1.303754	étude faisait	-0.04711847
-1.171208	études </s>
-0.228144	études <unk>	-0.04711848
-0.9331771	étudiant l'	-0.04711848
-0.9489304	étudiant à	-0.04711848
-1.00133	étudie divers	-0.04711848
-0.9428036	étudie un	-0.04711848
-0.5660143	été <unk>	-0.04711848
-1.103912	été le	-0.04711848
-0.4210295	être <unk>	-0.04711848
-1.528861	être celui	-0.04711848
-1.54607	être faite	-0.04711848
-1.406207	être un	-0.04711847
-1.535663	être utilisés	-0.04711848

\3-grams:
-0.4509656	d ' algèbre
-0.4509656	l ' algèbre
-0.8748994	<s> <unk> <unk>
-0.9644683	<s> <unk> de
-1.300824	<s> <unk> les
-1.543274	<s> <unk> sont
-0.9421664	<unk> <unk> </s>
-0.5859492	<unk> <unk> <unk>
-2.378558	<unk> <unk> ainsi
-2.41992	<unk> <unk> antoine
-2.442178	<unk> <unk> benveniste
-1.737078	<unk> <unk> dans
-1.100798	<unk> <unk> de
-1.553248	<unk> <unk> des
-2.442178	<unk> <unk> découvre
-2.442178	<unk> <unk> définitivement
-1.669799	<unk> <unk> en
-2.430907	<unk> <unk> hamilton
-2.243942	<unk> <unk> il
-1.443377	<unk> <unk> le
-1.456532	<unk> <unk> les
-1.681528	<unk> <unk> par
-2.305244	<unk> <unk> qu'
-2.280943	<unk> <unk> sont
-1.98524	<unk> <unk> sur
-2.339917	<unk> <unk> séparément
-1.386941	<unk> <unk> à
-1.558953	a <unk> aussi
-1.231909	a <unk> des
-1.288682	a <unk> le
-1.374962	a <unk> un
-0.9846709	ad <unk> fondée
-0.8986041	ainsi <unk> par
-0.9250977	al <unk> qui
-0.982574	albert <unk> ont
-0.6717383	algèbre <unk> </s>
-0.9197775	alors <unk> l'
-0.9804872	andrew <unk> a
-0.9846709	andré <unk> aurélien
-0.9250977	anneaux <unk> qui
-0.9830973	arbitraire <unk> infinie
-0.6767582	au <unk> <unk>
-0.6767582	aurélien <unk> <unk>
-0.9100971	aussi <unk> dans
-0.8672981	autres <unk> des
-0.9841457	avait <unk> écrit
-1.100637	avec <unk> et
-1.120745	avec <unk> les
-0.8960257	balkans <unk> en
-0.9846709	benveniste <unk> cohen
-0.6717383	bosnie <unk> </s>
-0.8836433	cadre <unk> et
-0.6767582	camille <unk> <unk>
-0.8978786	censé <unk> d'
-0.9314673	cette <unk> de
-1.330769	cette <unk> est
-1.455328	cette <unk> fondamentale
-0.8909143	chaque <unk> le
-0.6717383	charles <unk> </s>
-0.9846709	complexes <unk> considéré
-0.6092156	d' <unk> de
-1.746799	d' <unk> ici
-1.405119	d' <unk> le
-1.418843	d' <unk> les
-0.9830973	dans <unk> tous
-0.7414121	de <unk> <unk>
-2.052014	de <unk> autres
-2.063664	de <unk> bréal
-1.068095	de <unk> de
-1.41176	de <unk> des
-2.063664	de <unk> gigaoctets
-1.594327	de <unk> la
-1.9925	de <unk> parry
-2.046304	de <unk> peuvent
-1.640104	de <unk> qui
-2.052014	de <unk> théories
-0.9123356	des <unk> <unk>
-1.780081	des <unk> algébriques
-1.807153	des <unk> après
-1.010953	des <unk> de
-1.370627	des <unk> et
-1.613515	des <unk> sur
-1.800225	des <unk> études
-0.7313343	deux <unk> de
-0.9846709	die <unk> ausdehnungslehre
-0.6717383	dimensions <unk> </s>
-0.9197775	dirige <unk> l'
-0.6717383	divers <unk> </s>
-0.9836212	doctorat <unk> lettres
-0.8478615	du <unk> <unk>
-1.455328	du <unk> classique
-1.206347	du <unk> et
-0.923413	dès <unk> un
-0.7313343	définitions <unk> de
-0.9508756	emmy <unk> pour
-0.6693122	en <unk> <unk>
-1.482135	en <unk> d'
-1.062115	en <unk> de
-1.916151	en <unk> grassmann
-1.546109	en <unk> la
-1.908071	en <unk> mais
-1.896227	en <unk> on
-0.8986041	encore <unk> par
-0.9145455	entités <unk> comme
-0.6717383	espace <unk> </s>
-0.9037361	est <unk> </s>
-1.473429	est <unk> comme
-1.492683	est <unk> l'
-1.770037	est <unk> même
-1.807153	est <unk> possible
-1.807153	est <unk> utilisé
-1.32769	est <unk> à
-0.891969	et <unk> <unk>
-0.9855438	et <unk> de
-1.334408	et <unk> le
-1.645786	et <unk> maintenant
-1.436867	et <unk> qui
-0.8721521	exemple <unk> de
-1.281415	exemple <unk> simple
-0.6717383	exemples <unk> </s>
-0.6717383	extensions <unk> </s>
-0.9815294	facteurs <unk> avec
-0.9846709	fin <unk> auquel
-0.8691809	finie <unk> à
-0.6717383	finies <unk> </s>
-0.9671132	formé <unk> une
-0.6767582	français <unk> <unk>
-0.9250977	giuseppe <unk> qui
-0.9830973	grandement <unk> elle
-0.9799671	grassmann <unk> son
-0.6717383	groupes <unk> </s>
-0.9100971	générale <unk> dans
-0.7917355	géométriques <unk> </s>
-1.15281	géométriques <unk> comme
-0.9696438	hamilton <unk> du
-0.6717383	huit <unk> </s>
-0.7313343	idées <unk> de
-1.543274	il <unk> au
-1.352329	il <unk> la
-1.57502	il <unk> notamment
-1.572979	il <unk> sa
-0.9671132	iliade <unk> une
-0.9489354	jean <unk> sur
-0.9299081	l' <unk> </s>
-0.9385895	l' <unk> <unk>
-1.494388	l' <unk> dans
-0.8270249	l' <unk> de
-1.40477	l' <unk> et
-1.862985	l' <unk> nouvelle
-1.837341	l' <unk> que
-0.9815491	la <unk> </s>
-2.055096	la <unk> algébrique
-1.542792	la <unk> d'
-0.8152004	la <unk> de
-1.142443	la <unk> des
-1.327137	la <unk> du
-1.49017	la <unk> et
-2.066056	la <unk> externe
-2.033973	la <unk> meillet
-0.7917355	langues <unk> </s>
-1.282457	langues <unk> européennes
-1.866775	le <unk> canonique
-1.866775	le <unk> charles
-0.8270249	le <unk> de
-1.40477	le <unk> et
-1.862985	le <unk> formé
-1.862985	le <unk> linguiste
-1.605349	le <unk> ou
-0.9101719	les <unk> </s>
-0.9189012	les <unk> <unk>
-1.437172	les <unk> d'
-1.019208	les <unk> de
-1.430791	les <unk> en
-1.86157	les <unk> points
-1.86157	les <unk> règles
-1.849856	les <unk> structures
-1.279339	leur <unk> deux
-1.193877	leur <unk> ou
-0.7917355	leurs <unk> </s>
-1.145139	leurs <unk> dans
-0.6717383	linguistes <unk> </s>
-1.282457	linéaire <unk> dès
-1.280376	linéaire <unk> se
-0.9841457	linéaires <unk> non
-0.8978786	lui <unk> d'
-0.9100971	mais <unk> dans
-0.6767582	mathématiques <unk> <unk>
-0.786179	meillet <unk> le
-1.55467	meillet <unk> parry
-1.260977	meillet <unk> à
-1.125577	méthode <unk> par
-1.217758	méthode <unk> pour
-0.6717383	n' <unk> </s>
-0.9773255	ne <unk> pas
-0.8960257	non <unk> en
-0.6767582	on <unk> <unk>
-0.7983652	ont <unk> <unk>
-1.168275	ont <unk> un
-0.8691809	orale <unk> à
-1.26208	ou <unk> espace
-1.279339	ou <unk> leur
-0.7917355	par <unk> </s>
-1.282457	par <unk> descartes
-0.9773255	pas <unk> qu'
-0.9830973	peut <unk> ces
-0.9508756	peuvent <unk> pour
-1.15281	plus <unk> comme
-1.194997	plus <unk> est
-0.9377954	polynôme <unk> ou
-0.7313343	première <unk> de
-0.8960257	problèmes <unk> en
-0.9846709	produit <unk> brut
-0.8748994	qui <unk> <unk>
-0.9644683	qui <unk> de
-1.231909	qui <unk> des
-1.300824	qui <unk> les
-0.6717383	recherche <unk> </s>
-0.7313343	représentation <unk> de
-0.8957325	représentent <unk> les
-0.8960257	résultats <unk> en
-0.7983652	s' <unk> <unk>
-1.077052	s' <unk> à
-1.161906	sa <unk> l'
-1.281415	sa <unk> orale
-0.7917355	sciences <unk> </s>
-1.193877	sciences <unk> ou
-1.267995	se <unk> pas
-1.077052	se <unk> à
-0.8836433	ses <unk> et
-1.577071	son <unk> albert
-1.577071	son <unk> die
-1.57502	son <unk> pratique
-1.57502	son <unk> reste
-0.7917355	sous <unk> </s>
-1.194997	sous <unk> est
-0.6910825	structure <unk> comme
-1.296535	structure <unk> la
-0.7983652	telle <unk> <unk>
-1.125577	telle <unk> par
-0.9793971	théorie <unk> maintenant
-0.8691809	théorème <unk> à
-0.6767582	tradition <unk> <unk>
-0.8960257	très <unk> en
-0.9329526	un <unk> </s>
-0.941747	un <unk> <unk>
-1.914836	un <unk> changement
-0.8489906	un <unk> de
-1.906366	un <unk> entre
-1.91058	un <unk> important
-1.862518	un <unk> sous
-1.91058	un <unk> élémentaire
-1.327477	une <unk> d'
-0.6674936	une <unk> de
-1.576483	une <unk> question
-0.8672981	utilisation <unk> des
-0.8672981	vecteurs <unk> des
-0.7917355	vectoriel <unk> </s>
-1.077052	vectoriel <unk> à
-0.7403598	à <unk> <unk>
-1.805288	à <unk> celle
-1.811897	à <unk> entière
-1.409307	à <unk> le
-1.433699	à <unk> par
-1.519655	à <unk> un
-0.6717383	équation <unk> </s>
-0.9846709	équations <unk> demeurera
-0.8404382	études <unk> </s>
-1.429554	études <unk> au
-1.274073	études <unk> comme
-1.125577	été <unk> par
-1.27205	été <unk> séparément
-0.8404382	être <unk> </s>
-1.44916	être <unk> aux
-1.436934	être <unk> même
-0.3216667	<unk> a <unk>
-0.910498	abstraite a émergé
-0.9111781	du a connu
-0.9098189	elle a été
-0.3890709	il a <unk>
-1.264865	il a formé
-1.264865	il a également
-0.3216667	question a <unk>
-0.3216667	qui a <unk>
-0.5524225	d' abel donne
-0.5502065	très abstrait celui
-1.025619	algèbre abstraite </s>
-1.167965	algèbre abstraite a
-0.7185679	algèbre abstraite est
-0.8298317	manière abstraite mais
-0.5211408	l' académie des
-0.5392932	génitif accusatif en
-0.4985838	mémoires actuelles de
-0.4358304	manière ad <unk>
-0.5515348	déplacements additionnés entre
-0.5299112	l' aide d'
-0.5299112	par ailleurs d'
-1.112775	<s> ainsi chaque
-1.089045	<s> ainsi il
-0.4171747	<unk> ainsi que
-0.7202884	est ainsi <unk>
-0.8632942	formant ainsi le
-0.4171747	polynôme ainsi que
-0.4171747	utilisés ainsi que
-0.4358304	avec al <unk>
-0.4358304	<unk> albert <unk>
-0.5061065	d' alembert </s>
-1.204664	' algèbre moderne
-1.206039	' algèbre élémentaire
-0.7766091	<s> algèbre générale
-0.6540161	<s> algèbre linéaire
-0.6602157	appellation algèbre générale
-0.8695542	d' algèbre qui
-0.4748264	en algèbre linéaire
-1.359942	en algèbre non
-0.5634884	l algèbre linéaire
-1.352119	l' algèbre <unk>
-1.127528	l' algèbre abstraite
-1.708702	l' algèbre des
-1.818459	l' algèbre et
-1.020933	l' algèbre générale
-0.3135881	l' algèbre linéaire
-1.628285	l' algèbre qui
-0.8778859	ou algèbre abstraite
-0.5440613	sous algèbres sur
-0.7885266	<unk> algébrique utilise
-0.787762	calcul algébrique c'
-0.7373329	théorie algébrique des
-0.9029651	<unk> algébriques pour
-0.9039437	entiers algébriques comme
-0.7380496	expressions algébriques </s>
-1.158602	nombres algébriques andrew
-1.1313	nombres algébriques ou
-1.275806	structures algébriques et
-1.34845	structures algébriques ont
-1.343031	structures algébriques peut
-1.337678	structures algébriques sont
-0.7380496	équations algébriques </s>
-0.5380018	moulins allier et
-0.771273	deviennent alors une
-0.604728	jusqu' alors <unk>
-0.7854763	peuvent alors être
-0.5524225	un an avant
-0.7794392	en analyse espaces
-0.8804701	l' analyse des
-0.9556535	l' analyse fonctionnelle
-0.4358304	algébriques andrew <unk>
-0.4358304	dumézil andré <unk>
-0.5453709	l' angle ou
-0.8306741	d' anneau disposant
-0.8173875	sous anneau qui
-0.7981899	tout anneau est
-0.8289909	un anneau si
-0.7693513	certains anneaux </s>
-1.059841	des anneaux artiniens
-1.037554	des anneaux ou
-0.6481139	divers anneaux <unk>
-0.8434176	sous anneaux qui
-0.5524225	d' antiques conjectures
-0.3209103	<s> antoine meillet
-0.4580471	<unk> antoine meillet
-0.5418875	sont apparues dans
-0.5401562	l' appellation algèbre
-0.541454	est appelé une
-0.5345768	d' application est
-0.3721446	les applications linéaires
-0.71032	<s> après cette
-0.7161108	<unk> après lui
-0.4358304	dimension arbitraire <unk>
-0.5341506	propriétés arithmétiques le
-0.5341506	d' arménien à
-0.5519784	l article matrice
-0.7893869	d' artin wedderburn
-0.561606	emil artin et
-0.561606	par artin et
-0.5380018	anneaux artiniens et
-0.5497647	des aspects linéaires
-0.5519784	il assiste également
-0.5061065	groupe associé </s>
-0.5341506	il assure à
-0.8120962	<unk> au <unk>
-1.144825	<unk> au linguiste
-0.8026836	bréal au collège
-0.8026836	comparée au collège
-0.9108855	et au compas
-0.7270327	euclide au </s>
-0.903173	qu' au que
-0.9089445	utilisée au début
-0.7270327	émergé au </s>
-0.5524225	auquel aucun détail
-0.5524225	linguiste auguste carrière
-0.5524225	<unk> auquel aucun
-0.4358304	<unk> aurélien <unk>
-0.524461	<unk> ausdehnungslehre la
-0.5107805	<unk> aussi un
-0.8769829	disposant aussi d'
-0.9164113	domaines aussi divers
-0.5107805	est aussi un
-0.5107805	forment aussi un
-0.8986203	mais aussi dans
-0.9180654	peut aussi contenir
-0.9131219	peuvent aussi être
-0.8578935	sont aussi <unk>
-1.156045	sont aussi très
-0.5436257	des automorphismes du
-0.5436257	émergé autour du
-0.7885266	<unk> autres branches
-0.7053996	d' autres <unk>
-0.9534105	d' autres théorèmes
-0.8567415	<unk> aux dimensions
-0.6894703	beaucoup aux espaces
-0.8576047	et aux transformations
-0.6894703	intéresse aux espaces
-0.8541622	pas aux cas
-0.4358304	qui avait <unk>
-0.5488824	an avant que
-0.8406793	<s> avec les
-0.8534677	<unk> avec le
-0.8830024	burnside avec son
-0.8914185	commence avec al
-0.590497	connexions avec <unk>
-0.590497	déjà avec <unk>
-0.8857896	travail avec meillet
-0.5497647	s' avère être
-0.5519784	s' avèrent parfois
-0.5524225	qui axiomatise entièrement
-0.4358304	les balkans <unk>
-0.4985838	de banville de
-0.884041	de base de
-1.020747	de base peut
-0.9760978	de base à
-0.4985838	les bases de
-0.8182061	du beaucoup ou
-0.8281517	intéresse beaucoup aux
-0.8264782	méthode beaucoup plus
-0.7342749	possède beaucoup de
-0.5515348	et belles lettres
-0.4358304	<unk> benveniste <unk>
-0.5524225	symétries bien choisies
-0.706502	de bipoints qui
-0.716759	deux bipoints représentent
-0.5061065	par bloc </s>
-0.6848752	ensembles blocs d'
-0.6512502	par blocs </s>
-0.5510916	de bonnes propriétés
-0.4358304	en bosnie <unk>
-0.5524225	origine bourbonnaise fils
-0.3083836	la branche des
-0.4368308	une branche des
-0.7794392	autres branches comme
-0.7801893	deux branches mathématiques
-0.7373329	les branches des
-0.5519784	richard brauer étudie
-0.4985838	<unk> brut de
-0.5488824	<unk> bréal au
-0.7052367	de burnside sur
-0.7135275	par burnside avec
-0.08792321	<s> c' est
-0.08792321	algébrique c' est
-0.08792321	enfin c' est
-0.08792321	et c' est
-0.640778	le cadre de
-0.5559602	son cadre <unk>
-0.5515348	le calcul algébrique
-0.4358304	et camille <unk>
-0.5515348	<unk> canonique entre
-0.5061065	ou caractéristique </s>
-0.5341506	droite caractérisés à
-0.5524225	<s> carl friedrich
-0.5341506	auguste carrière à
-0.4985838	espaces cartésiens de
-0.8754821	aux cas où
-0.9953486	le cas de
-1.070484	le cas des
-1.189363	le cas général
-0.831086	les cas d'
-0.8754821	un cas très
-0.5506488	<s> ce n'
-0.7771968	<unk> celle qui
-0.7518564	est celle d'
-0.7900597	à celle d
-0.5211408	comme celles des
-0.2967983	abstrait celui des
-1.072351	est celui de
-0.2707337	est celui des
-0.8587897	meillet celui ci
-0.2967983	être celui des
-0.4358304	est censé <unk>
-0.7077709	complexes cependant pour
-0.6771089	réels cependant la
-0.5510916	un certain nombre
-0.7148172	de certaines structures
-0.7174081	représenter certaines entités
-0.5506488	de certains anneaux
-0.8306741	<s> ces points
-0.8315181	<unk> ces données
-0.9999951	de ces espaces
-1.015202	de ces problèmes
-0.7046055	<s> cet espace
-0.7174081	dans cet environnement
-0.5181597	<s> cette <unk>
-1.295663	<s> cette méthode
-0.9178819	après cette découverte
-0.525793	de cette théorie
-0.7325049	et cette <unk>
-1.155094	et cette utilisation
-0.9168714	gigaoctets cette question
-0.9168714	à cette époque
-0.9049246	élucider cette structure
-0.9178819	élémentaire cette dernière
-0.5225329	sur ceux de
-0.5225329	à ceux de
-0.7759259	éléments ceux du
-0.5061065	matrices cf </s>
-0.809138	la chaire d'
-0.7513678	la chaire de
-0.5418875	<unk> changement dans
-0.7090436	ainsi chaque sous
-0.5559602	pour chaque <unk>
-0.4358304	<unk> charles <unk>
-0.8180559	châteaumeillant cher est
-0.8339044	châteaumeillant cher il
-0.5440613	bien choisies sur
-0.5488824	vectoriels choisis sont
-0.4596727	de châteaumeillant cher
-0.4596727	à châteaumeillant cher
-0.5519784	celui ci écrit
-0.5458083	même citer pour
-0.5418875	écrit cité dans
-0.5299112	une classe d'
-0.5211408	la classification des
-0.5286474	<unk> classique l'
-0.5462461	les classiques espaces
-0.8468177	les coefficients </s>
-0.9337278	les coefficients du
-0.7720091	à coefficients dans
-0.5524225	<unk> cohen georges
-0.3441429	au collège de
-0.5524225	les combinant ensuite
-0.5211408	pour combiner des
-0.9188939	<s> comme dans
-1.571601	<unk> comme celles
-1.389767	<unk> comme des
-0.6498097	<unk> comme la
-1.23209	<unk> comme les
-1.565458	<unk> comme telle
-0.8097401	<unk> comme un
-0.9255103	algébriques comme pour
-0.8257391	branches comme les
-0.5931544	conjectures comme la
-0.5994022	considéré comme un
-0.5994022	corps comme un
-0.5931544	géométrie comme la
-0.8968459	quaternions comme l'
-0.9489589	linéaire commence avec
-0.9294724	linéaire commence par
-0.7832026	ne commence son
-0.5061065	non commutative </s>
-0.8459639	grammaire comparée au
-0.8485922	grammaire comparée qu'
-0.5061065	au compas </s>
-0.7892925	des complexes cependant
-0.7839592	nombres complexes sont
-0.604728	ou complexes <unk>
-0.5341506	il complète à
-0.5502065	n composantes on
-0.5211408	est composé des
-0.5278069	théorèmes concernent les
-0.5299112	exemple concret d'
-0.5506488	exemples concrets ont
-0.5519784	une condition nécessaire
-0.5299112	les conditions d'
-0.5440613	une conférence sur
-0.5462461	antiques conjectures comme
-0.5497647	de connexions avec
-0.5320257	a connu un
-0.5510916	il consacre ses
-0.4985838	développement conscient de
-0.524461	de considérer la
-0.5462461	<unk> considéré comme
-0.5341506	elle consiste à
-0.5341506	figures constructible à
-0.809138	la construction d'
-0.8512366	la construction moderne
-0.8364605	vectoriel construit sur
-0.8172376	vectoriel construit à
-0.5418875	représentation construite par
-0.7135275	en conséquence meillet
-0.7174081	une conséquence directe
-0.5745742	l contenant tous
-0.7615179	le contenant est
-0.5745742	premier contenant tous
-0.5320257	aussi contenir un
-0.7497517	elle contient l'
-0.7008224	galois contient de
-0.7553872	groupe contient un
-0.4985838	des copies de
-0.9736491	de corps de
-1.213095	de corps plus
-0.7752607	des corps </s>
-1.133443	des corps l'
-1.035407	du corps des
-1.126002	du corps l
-1.165228	le corps de
-0.8804591	le corps des
-1.416897	le corps k
-1.580036	le corps peut
-1.553702	le corps sous
-0.9532236	les corps finis
-0.8988559	petit corps l
-0.8634861	sous corps </s>
-1.406939	sous corps est
-1.364342	sous corps k
-1.40416	sous corps le
-1.521068	sous corps permet
-0.6586087	un corps </s>
-1.502376	un corps comme
-1.546068	un corps disposant
-1.532151	un corps fini
-0.5341506	il correspond à
-0.5225329	le cours de
-0.5225329	les cours de
-0.7608436	ses cours à
-0.5515348	le crible général
-0.5380018	peut créer et
-0.524461	du cube la
-0.5299112	exemple célèbre d'
-0.5436257	à côté du
-0.5519784	celle d '
-1.208893	<s> d' autres
-1.257018	<s> d' origine
-0.8265391	<unk> d' <unk>
-1.684937	<unk> d' endomorphisme
-1.681914	<unk> d' extensions
-0.6251588	<unk> d' une
-1.681914	<unk> d' équation
-0.651333	aide d' un
-0.612394	ailleurs d' <unk>
-0.5910708	aussi d' une
-0.5910708	blocs d' une
-0.946058	cas d' utilisation
-0.7849321	celle d' espace
-0.9722991	chaire d' arménien
-0.612394	classe d' <unk>
-0.7849321	concret d' espace
-0.612394	conditions d' <unk>
-0.651333	construction d' un
-0.9704145	célèbre d' anneau
-0.946058	dans d' autres
-0.5910708	disposant d' une
-0.5910708	endomorphismes d' une
-0.9448743	ensemble d' équations
-0.9722991	exemple d' application
-0.9635735	exemples d' espaces
-0.651333	fils d' un
-0.946058	fini d' éléments
-0.9722991	groupes d' exposant
-0.651333	généralisation d' un
-0.9722991	jean d' alembert
-0.651333	linéaires d' un
-0.612394	mémoires d' <unk>
-0.946058	nombre d' éléments
-0.4815255	notion d' espace
-0.5910708	origine d' une
-0.5910708	pas d' une
-0.97167	permet d' élucider
-0.612394	possible d' <unk>
-0.651333	représentation d' un
-0.5910708	résolution d' une
-0.9722991	résoudre d' antiques
-0.946058	simple d' utilisation
-0.5910708	sont d' une
-1.384078	structure d' algèbre
-0.6190603	structure d' espace
-0.651333	symétries d' un
-0.538425	systèmes d' équations
-1.258233	théorème d' abel
-1.255807	théorème d' artin
-1.210612	<unk> dans <unk>
-0.7316557	<unk> dans de
-0.6926531	<unk> dans le
-0.7698445	<unk> dans les
-1.597346	<unk> dans son
-0.957302	apparues dans différents
-0.6963623	aussi dans de
-0.7151526	changement dans la
-0.7151526	cité dans la
-0.933347	coefficients dans un
-0.9308746	comme dans d'
-0.7151526	domaines dans la
-0.57449	déplacements dans les
-0.9567783	efficacement dans cet
-0.5203224	fondamentale dans le
-0.5203224	important dans le
-0.57449	linéaires dans les
-0.9206418	mathématiques dans des
-0.5203224	même dans le
-0.5203224	nécessaire dans le
-0.57449	scalaires dans les
-0.5203224	structure dans le
-0.6963623	utilisée dans de
-0.57449	vecteurs dans les
-1.664702	<unk> de </s>
-0.7775577	<unk> de <unk>
-2.314199	<unk> de banville
-1.748518	<unk> de base
-2.300743	<unk> de bipoints
-2.300743	<unk> de certaines
-2.123013	<unk> de ces
-2.300743	<unk> de châteaumeillant
-2.14098	<unk> de degré
-2.275019	<unk> de deux
-2.300743	<unk> de droite
-2.300743	<unk> de formalisation
-0.870883	<unk> de l'
-0.8586722	<unk> de la
-2.14098	<unk> de linguistes
-2.165256	<unk> de mathématiques
-2.300743	<unk> de matrices
-2.14098	<unk> de milman
-2.14098	<unk> de paris
-2.131904	<unk> de sa
-2.205895	<unk> de son
-0.6507557	actuelles de <unk>
-0.9798731	banville de moulins
-0.6482415	base de l'
-0.9612571	bases de cette
-0.9806478	beaucoup de connexions
-0.9798731	brut de huit
-0.6482415	cadre de l'
-0.8375462	cartésiens de dimension
-0.9524485	cas de corps
-0.8298942	celui de la
-0.7642825	ceux de <unk>
-1.269954	ceux de ses
-0.9687365	chaire de grammaire
-0.5491277	collège de france
-0.6482415	conscient de l'
-0.8904569	contient de nombreux
-0.9706829	copies de sous
-1.160911	corps de base
-1.258043	corps de nombres
-0.7642825	cours de <unk>
-1.251377	cours de grammaire
-0.6249753	dans de <unk>
-0.7927186	dans de nombreux
-0.9679827	directe de sa
-0.9806478	disposer de bonnes
-0.8904569	démonstration de nombreux
-0.6482415	détermination de l'
-0.4217954	développement de l'
-1.02708	espaces de dimension
-1.274507	espaces de fonctions
-0.5017396	est de dimension
-1.443543	et de ferdinand
-1.100164	et de la
-1.439064	et de leurs
-0.9687365	extension de degré
-0.9687365	faite de manière
-0.9687365	ferdinand de saussure
-0.9790998	fini de symétries
-0.6482415	fondement de l'
-0.6482415	formulaïque de l'
-0.9192072	groupe de galois
-0.9524485	général de corps
-0.8298942	générale de la
-0.8298942	géométriques de la
-0.6482415	histoire de l'
-0.9687365	lettres de paris
-0.9790998	matrices de divers
-1.434631	nom de l
-1.439064	nom de représentation
-1.430242	nom de théorème
-0.9687365	nombre de linguistes
-0.9192072	notion de base
-1.272984	objet de recherche
-1.271467	objet de théories
-0.9192072	ou de galois
-0.6482415	partie de l'
-1.271467	partir de où
-1.239359	partir de par
-0.8716076	permet de <unk>
-1.564282	permet de considérer
-0.8472036	permet de résoudre
-0.7642825	plus de <unk>
-1.248494	plus de ces
-0.9790998	possible de représenter
-0.9790998	problèmes de géométrie
-0.9806478	produit de facteurs
-0.6507557	règles de <unk>
-0.6482415	sciences de l'
-0.8375462	sont de dimension
-1.274507	structure de certains
-1.263958	structure de groupe
-0.9790998	suffisante de résolution
-1.251377	suite de saussure
-1.272984	suite de travaux
-0.6482415	symétries de l'
-0.9798731	thèse de jean
-1.160911	théorie de galois
-0.7610199	théorie de l'
-1.441298	théorème de burnside
-1.443543	théorème de fermat
-1.441298	théorème de wedderburn
-0.6507557	théorèmes de <unk>
-0.9783278	tout de même
-0.9687365	travail de milman
-0.7610199	travaux de l'
-1.272984	travaux de richard
-0.9612571	utilisation de cette
-0.9687365	utilisée de manière
-0.5017396	vectoriel de dimension
-0.8375462	vectoriels de dimension
-0.8904569	à de nombreux
-0.7610199	étude de l'
-1.269954	étude de vecteurs
-0.5524225	richard dedekind développe
-0.3688649	de degré du
-0.5515348	<unk> demeurera utilisée
-0.5497647	le dernier théorème
-0.5524225	cette dernière enseigne
-0.64667	<unk> des <unk>
-1.854573	<unk> des aspects
-1.854573	<unk> des formules
-0.9872184	<unk> des mathématiques
-1.732905	<unk> des problèmes
-1.848489	<unk> des résultats
-0.6397003	académie des <unk>
-0.9756385	algèbre des endomorphismes
-0.7875538	algébrique des nombres
-0.9555799	analyse des premières
-0.4168418	branche des mathématiques
-0.8246319	branches des mathématiques
-0.9529052	cas des anneaux
-0.7875538	celles des nombres
-0.8177768	celui des <unk>
-1.542758	celui des figures
-1.539315	celui des polynômes
-1.467072	celui des rationnels
-0.953795	classification des groupes
-0.9555799	combiner des scalaires
-0.974703	comme des déplacements
-0.9756385	composé des automorphismes
-1.423867	corps des complexes
-1.024324	corps des nombres
-1.426504	corps des quaternions
-0.9709807	dans des domaines
-0.4969172	domaines des mathématiques
-1.226495	ensemble des entiers
-1.22483	ensemble des symétries
-0.974703	essentiel des idées
-1.22483	et des exemples
-1.264706	et des expressions
-0.9737694	faculté des lettres
-0.953795	finies des rationnels
-0.9555799	français des premières
-0.9529052	groupes des anneaux
-0.9737694	générale des théories
-0.9529052	linéaires des équations
-0.9546865	mathématiques des problèmes
-0.936338	ou des corps
-1.374425	par des scalaires
-1.372086	par des symétries
-1.426504	par des transformations
-0.7875538	partie des nombres
-0.6397003	pratique des <unk>
-0.9728379	première des deux
-0.9756385	propriétés des déterminants
-0.9555799	résolution des systèmes
-1.264706	sont des copies
-1.191252	sont des corps
-0.9555799	structure des langues
-0.9636306	sur des sous
-1.559266	théorie des groupes
-0.585524	théorie des nombres
-1.556277	théorie des équations
-1.22483	théories des exemples
-1.226495	théories des systèmes
-0.6397003	utilise des <unk>
-1.226495	utiliser des entiers
-1.259274	utiliser des vecteurs
-1.261077	à des dimensions
-1.259274	à des études
-0.9555799	école des langues
-0.974703	époque des mémoires
-0.5467445	étude des structures
-0.5449339	<unk> descartes qui
-0.8306741	<unk> deux bipoints
-0.8315181	de deux droites
-0.6313322	des deux <unk>
-0.8298317	entre deux branches
-0.5524225	meillet devait diriger
-0.5515348	vectoriels deviennent alors
-0.541454	linéaire devient une
-0.4358304	<unk> die <unk>
-0.5453709	géométrie différentielle ou
-0.5502065	dans différents domaines
-1.48079	de dimension arbitraire
-1.383212	de dimension et
-1.042545	de dimension finie
-1.040134	de dimension infinie
-1.14259	de dimension ou
-1.477488	de dimension suffisante
-0.7734167	en dimension ou
-0.8964602	la dimension peut
-0.7892925	aux dimensions finies
-0.604728	des dimensions <unk>
-0.7786905	huit dimensions pour
-0.5278069	à dire les
-0.4985838	conséquence directe de
-0.5380018	leur direction et
-0.4358304	le dirige <unk>
-0.524461	devait diriger la
-0.7116002	anneau disposant aussi
-0.6848752	corps disposant d'
-0.4985838	pour disposer de
-0.5061065	domaines distincts </s>
-0.5497647	équations dites linéaires
-0.7839592	aussi divers que
-0.604728	de divers <unk>
-0.7869987	étudie divers anneaux
-0.5061065	grande diversité </s>
-0.4358304	le doctorat <unk>
-0.8692703	des domaines aussi
-0.6890891	différents domaines des
-0.8657119	les domaines mathématiques
-1.150286	nombreux domaines dans
-0.8662744	nombreux domaines des
-1.193292	nombreux domaines distincts
-0.541454	abel donne une
-0.5418875	est donné par
-0.5524225	ces données efficacement
-0.5278069	recherches dont les
-0.7174081	de droite caractérisés
-0.6909451	la droite le
-0.5392932	deux droites en
-0.5506125	<unk> du <unk>
-1.369733	<unk> du développement
-0.8733057	automorphismes du corps
-0.9488058	autour du début
-0.9445223	ceux du plus
-0.9498833	coefficients du polynôme
-0.6749363	côté du <unk>
-1.083728	degré du corps
-1.10788	degré du groupe
-0.9509635	duplication du cube
-1.340658	début du a
-1.285895	début du en
-1.327592	début du sous
-0.8458158	décennies du </s>
-0.9445223	démonstration du théorème
-0.9509635	emploi du génitif
-1.211962	fin du beaucoup
-1.156483	fin du et
-0.8880235	fini du groupe
-0.9488058	k du premier
-0.5524225	georges dumézil andré
-0.5436257	la duplication du
-0.4358304	<unk> dès <unk>
-0.1228837	au début du
-0.1228837	du début du
-0.1228837	le début du
-0.5436257	premières décennies du
-0.5392932	la décomposition en
-0.5278069	cette découverte les
-0.5278069	<unk> découvre les
-0.5524225	qui découvrit gustave
-0.5519784	éléments définissant parfois
-0.5502065	ne définit pas
-0.5380018	la définition et
-0.4358304	les définitions <unk>
-0.5341506	<unk> définitivement le
-0.5497647	utilise déjà avec
-0.7513678	la démonstration de
-0.8356068	la démonstration du
-0.7174081	des déplacements additionnés
-0.7020895	les déplacements dans
-0.5506488	aucun détail n'
-0.5418875	des déterminants par
-0.4985838	la détermination de
-0.524461	en déterminer la
-0.541454	dedekind développe une
-0.7174081	du développement conscient
-0.4182278	le développement de
-0.5418875	structure développée par
-0.5418875	données efficacement dans
-1.09074	<s> elle a
-1.103194	<s> elle consiste
-1.100047	<s> elle se
-0.8298317	<unk> elle contient
-0.5510916	<s> elles ne
-0.5515348	par emil artin
-0.4358304	et emmy <unk>
-0.5436257	l' emploi du
-0.3623383	<s> en <unk>
-1.738362	<s> en conséquence
-1.103973	<s> en il
-1.60182	<s> en un
-0.6064051	<unk> en <unk>
-1.028408	<unk> en algèbre
-1.666262	<unk> en bosnie
-1.632866	<unk> en dimension
-0.9943275	<unk> en mathématiques
-1.622281	<unk> en théorie
-0.4563868	accusatif en <unk>
-0.4563868	droites en <unk>
-0.9573899	du en particulier
-0.9573899	décomposition en produit
-0.4563868	exemple en <unk>
-0.9565913	finie en général
-0.7292199	important en algèbre
-0.8390946	lettres en </s>
-0.9147857	matrice en les
-0.9565913	notamment en analyse
-0.4563868	ou en <unk>
-0.95819	pour en déterminer
-0.5023118	théorie en </s>
-0.8692305	utilisé en algèbre
-1.132277	utilisé en mathématiques
-0.7053996	ou encore <unk>
-0.9545306	ou encore utiliser
-0.7892925	question encore objet
-0.5061065	d' endomorphisme </s>
-0.5299112	des endomorphismes d'
-0.5510916	<s> enfin c'
-0.5341506	dernière enseigne le
-0.4331233	l' ensemble des
-0.6848752	un ensemble d'
-0.5519784	sous ensembles blocs
-0.5418875	combinant ensuite par
-0.7649248	des entiers </s>
-0.8450913	des entiers algébriques
-0.4358304	certaines entités <unk>
-0.5061065	<unk> entière </s>
-0.524461	axiomatise entièrement la
-0.5458083	l' entraînement pour
-0.787762	<unk> entre deux
-0.7900597	additionnés entre eux
-0.7483541	canonique entre les
-0.5061065	cet environnement </s>
-0.7494615	<unk> espace <unk>
-0.2907648	cet espace vectoriel
-0.1400003	d' espace vectoriel
-1.46468	d' espace à
-1.205807	l' espace est
-0.2657972	l' espace vectoriel
-0.04878544	un espace vectoriel
-0.7518934	analyse espaces de
-0.9008501	aux espaces de
-0.3291021	aux espaces vectoriels
-0.2839038	ces espaces vectoriels
